janitor 0.033539134651876322 -0.024101240118102083 0.038617133275143371 -0.031012532614384088 0.014153178969665071 -0.061156316851442953 -0.049353548356474208 0.054038403119472792 -0.090229803087637145 -0.044596188323497793 -0.020654985744310541 -0.070004026001097008 -0.071100057737679204 0.007457148233472731 0.065639246315928101 0.066250281661104082 0.020222583849261316 -0.047554440906091296 0.13095184324198189 0.015389149634054255 0.010224745766772158 0.036621547813369709 -0.006414274505708484 0.035210136936132584 -0.082116538512111009 0.032091471139650267 -0.033715701889646205 -0.0046476629405747052 0.081322549454607498 0.0010793142002401591 -0.073330064383215432 0.052732369072436613 -0.056351246096771265 0.014650760472699561 -0.028674143738855074 -0.055194918526865519 -0.14139598319355751 0.059410179572390996 0.022966889534174077 -0.052642582753655763 -0.0050979093968879074 -0.016905561666518368 0.058136077898143006 0.055559135414137657 -0.021530871946141356 -0.018298376632543568 -0.0013975109031999274 0.050609993306945218 -0.098791435744606582 0.013062782357692546 0.022156934290276483 -0.031512743842236429 -0.077244221937097179 0.021115751099895139 -0.061464933842566273 0.0038117861234725973 -0.07467159971529258 -0.021548716507405332 0.0080559741419944202 -0.13220922737988786 0.10152184145548214 -0.025956886652068762 0.041724340984919339 0.10095569926969659 -0.088303153983588539 0.050050049758230311 0.045272403276659046 -0.089930014458402319 0.0018130074244201212 -0.035776091284431148 0.068037179674832707 0.033202717712678596 -0.027187785704309235 0.028001122022972634 0.046807411220335098 0.0254517916495547 -0.05903056001118575 -0.094213084836730909 0.074298742303618936 0.0079752040225890483 0.025854515221659623 0.052487241151915658 0.062333870057378477 -0.043478930950885807 -0.004988587979460171 -0.02172434455774027 0.062552700729720939 0.096731797699769598 0.019782668454732519 -0.035174259976117637 -0.024719976800244629 0.014205773466022057 -0.034048362079104146 -0.080709072222100636 0.055638402833647113 0.0081147672754220516 0.01365597314160456 -0.1138235063158943 0.0091884463510525337 0.007513875154543481 0.13055437911951268 -0.096780259771412816 0.017660104851754139 0.081400314174221042 0.014891943805993743 0.021167969921278149 0.096481786004586928 2.3667523360643931e-05 -0.001480910747423149 0.075250890525167383 0.10341467981187269 0.017533690223010379 0.04164225600310504 -0.0032041318530624144 -0.030398304031929283 -0.045618587765180213 -0.098022429072872647 0.059838449042726463 0.013377410148399521 -0.0052139929638472561 0.011292038367845005 0.027162615481052678 -0.025531434744038135 -0.081046240511246329 -0.030039158756805861 -0.070161058140220015 0.011237941171592105 -0.015451323842247691 -0.062153546069868816 0.088222947376644129 0.1136612147271356 -0.074617690356526656 0.024904433212468064 0.10770207045240203 0.015589384395184782 -0.045801353640020741 0.049393745578689911 0.044313868580552966 0.089582702944959222 -0.049585151977931945 0.014443012212089466 0.01628175337222711 0.11581214179064936 0.046984729808052933 -0.0035931432886171255 0.021607133965858984 0.0053148616943604768 0.0012000937043742388 0.065901655285252062 -0.062640984348605877 -0.097925692767073191 0.012180509681304099 -0.15758062458501118 -0.053760215801241726 0.037973038532257274 -0.035747915661382766 0.04405390149855986 0.072229900221919469 -0.0013982622531478843 -0.064414170225784287 -0.021171726671017931 -0.009486544442904454 0.12190277230627539 0.0047423330340172799 0.084104046961944123 0.053714195616929368 -0.11265665984671715 0.051373177016582498 -0.019708096972397792 -0.020550172426570545 -0.0048807692619283489 0.053641690346951522 -0.028419060431523688 -0.016210562964658191 0.065661223301905838 0.016776329475469774 0.030814551903097433 0.041068412480352923 0.19226970033223559 0.081760210799292424 -0.005249494248888222 -0.037593606808539015 0.053303019357909924 0.058518327184166101 0.025732233017629631 0.011171071026223936 -0.0095727618494325147 0.064509967344148794 -0.024991026293970101 -0.071113206361768461 0.1067848600034336 0.098002706136738782 -0.010284102412660756 -0.05486282184986855 0.03827602039877092 -0.10306943451078647 0.018860762068589342 -0.0068966411722968463 -0.037121571203735063 -0.012046393715593781 0.028055594894199509 -0.08827103377331337 0.026609058406895394 -0.0019242072167177495 0.012473723998494297 -0.0233085659230075 0.00099722921842586233 0.11101815344771004 0.017500818662787264 -0.12162871741275809 0.0042875784780163359 0.03244629615257294 -0.071686674209546594 -0.0063150963125781666 0.090840838432813126 -0.0024370035561983678 0.034095509288338446 0.10203106888270998 0.025537069868647812 -0.036979566063571195 -0.033398444374121379 -0.02017956906474078 0.0095607402502652025 -0.068224265811873991 0.019816479202390581 0.073365565668256402 -0.035768765622438574 0.14038992561324315 -0.082062065640884127 0.015632399179705318 -0.059266483894844235 0.0023705090858041778 0.020121715118748093 -0.031096683808555268 -0.063888413099701405 0.062718749068219434 0.0049205908091700667 -0.0067104942226905119 -0.040470713596753166 0.041415160481335055 -0.10523689127315528 0.10316579514161195 0.089307896701493972 -0.020062358472859497 0.053341526042742712 0.043088228977948194 0.035465971593411923 0.05938144043688165 0.00053195576315352071 0.095408670441417417 -0.047485504548366246 0.010559096493613 -0.013425872220042743 0.024030425385507138 0.1038247290459702 -0.031625822009403948 -0.024610279707842915 0.012451747012516558 0.035972944970795874 -0.011171071026223936 0.056821403326705336 -0.0011625262069763912 -0.080062911266857661 0.086708038044075925 -0.028352753798616483 0.048205485635995984 0.0097880236095221809 0.075109261059977506 -0.042069210611031575 -0.057297947031197019 0.030508564636791965 -0.067544669783946923 -0.13356034242380144 0.042279588596459527 -0.069423232491326287 0.059432720070829705 0.0078856055412951809 0.03259581479221637 -0.023942705279083164 0.061036852209717794 0.0414038902321157 -0.022729087275645703 0.069240842291459728 -0.071021917343091698 0.026072031031593165 0.0077000221041498155 0.027237938313335361 0.014430239262974197 -0.057551715476119487 0.045256437090264966 0.10151583065589849 0.0065780687943630999 0.023356652319676742 0.089945041457361458 0.054334434998967819 -0.02662014081862776 -0.057732978651064103 0.064145938294363658 -0.071818723962900038 -0.076886203686895679
statistician -0.11025434761243035 0.017570824681782466 0.02036706791135879 0.061280350738278686 -0.014546412330153703 -0.043844697337332969 -0.0080855855629057439 -0.037539227428860053 -0.020336429087702459 -0.012263459511008145 0.019718425991716821 -0.017390416078959012 -0.046476572289411801 -0.092453371296476503 0.058379575051521936 -0.013470629163067587 0.018807732015625994 -0.034322150944945305 -0.036504896787897215 0.073336367390296017 -0.020296238160200333 -0.04592363163660225 -0.062819320827698741 0.016255878461802521 -0.077808914730622555 0.11376663817369258 0.01429823785853742 -0.12525151110708102 -0.014338248557665099 0.024106085767677865 -0.14842851960447426 -0.019142776563726694 0.00016328690725079918 0.063746415585864427 -0.078064298337216786 -0.071420900226651998 -0.0019475478142959557 -0.0655811404377553 -0.045753496051122389 -0.037215717496724095 -0.079814856538239984 -0.027633515512393802 -0.0053380039944306516 0.068347645985547545 0.015760250432067753 0.083939382887505479 0.023663264651656656 -0.036888242540350245 0.030692531711916778 0.063803728208939217 0.040524169766484486 -0.0098808404007922901 0.04418406736642045 -0.17636499901431685 -0.062515816245126615 -0.1033786351272008 0.03683525539826224 0.076513433175083106 0.0054555128945714031 -0.016716181730145281 0.06046553825739473 -0.014769174600972674 0.019208740148775029 0.063607639737538704 -0.03822337433826848 0.064863651279073814 0.047070785239970173 -0.054498717464511501 -0.019332557042021498 -0.020759064625785379 0.13659057928554022 -0.074230300127563098 0.033918799842928428 -0.00051833680491534054 0.047626609546770914 -0.072919499160195467 0.074290496404629064 -0.0095634582333875909 -0.047009507592657505 0.043476851225082554 0.01298257072505968 0.064490939000713274 -0.08346033586822002 -0.1627245947225183 0.0056391656081349398 -0.0075407551869463999 0.018374823460199481 0.058147621133606067 0.031752274553676935 0.026588190940589569 -0.013245704151755227 0.049655620586317818 -0.067318722195818165 -0.015058801598712226 0.1320367489483372 -0.039612033963398074 0.038024221984502331 -0.029237728273364405 0.046237048779769079 0.042192003143635588 -0.0028180508628846538 -0.048523606166403603 -0.017572807193901408 -0.029136259698549615 0.062883121672253697 0.061073088107662335 0.012720518668610825 0.072483346494028877 -0.015370416458134556 0.039466048980094377 -0.063879604354582245 0.030901957083026524 -0.053180346905417016 0.0058392191037733359 0.082656337089803009 0.013792156583084612 -0.021954519433505633 -0.032669456751247924 0.02021495516332383 0.016722309494876547 -0.008171013812394573 -0.036711078048266878 0.075205515861706665 -0.00080165580954917744 -0.027327667960953844 -0.083685260879532375 -0.025913055449903594 -0.08278988631526972 0.026132753838356931 0.084378779664412151 0.059671091582823507 0.0068274112808772349 -0.12166100143130794 0.04523065353684582 -0.035051715404714877 0.028501495363740217 0.033122731112987171 0.082769700737331434 0.015211635260244983 0.036296552787034163 -0.03489581786081649 0.078873343510118377 0.059814733597259369 -0.10187895482341061 0.014727361618100503 -0.069578786011408697 -0.058392010809358921 -0.048461066920469802 0.1513745326132177 0.0097444075213343924 0.024996954622579302 0.060820407926684826 -0.10517046562597279 -0.10482136326466508 0.031745606103822314 0.026042459422757978 -0.057843395637536141 0.086111134799616004 0.056570622857177268 0.011162444371499169 -0.040395666935502346 0.052319936645797468 -0.024172590037849544 0.029367132246218789 0.01794335673176856 0.044245705470482011 -0.046618051563354267 0.02929990706254931 0.00021951816007888895 0.012870829132901296 0.038834708984399509 0.018188287092644761 0.09836450152165499 -0.066590058877920841 0.047556861165859138 -0.038674485959514344 0.010734401982182782 -0.016777639605832392 -0.0071912923688897774 0.054649208157176415 -0.059914760345078567 -0.033717664977043336 0.059918364912567544 -0.011286621721494534 -0.0090936028611990332 0.052223514465467247 -0.0045051686761017956 0.034422177692764504 0.0018055278552301397 -0.13305648109096965 -0.079440882661258289 0.025091574519165029 0.015850004162543358 0.010479559060711888 -0.087858989575022459 -0.13549911624987704 0.028087691016005299 0.017054109932237167 -0.066769746567246505 0.017039331205532349 0.050310210042316596 0.020498995081455463 0.088774369488848953 0.092946836585717882 0.037507507234957028 -0.072688266155777406 0.030047314131389339 0.078381320047872599 -0.029757506905275337 0.061235293644666428 -0.014548034385523743 0.0041719264117455841 -0.032333330832900527 -0.05779869900067279 0.071014845699018378 -0.051854767211344584 0.037827412599604017 -0.040085854359824508 -0.0260844526340046 0.01309467277396696 -0.033187793556163261 0.082872971595890715 -0.031782913377333265 0.017536581290637156 0.064443719166607641 -0.045596156680228414 0.046263722579187525 0.10093996499253129 0.020119253896491406 0.070044856587733836 -0.036037023927827594 -0.023519802865595248 0.031892131772249359 -9.5340810083524029e-05 -0.055948114051830401 0.017387892881716726 0.073024932759248137 -0.034059197746624206 -0.047243624251066763 0.03637837646903401 -0.11309222359650441 -0.088026962420008931 -0.051656876456199576 0.043909219095385713 -0.025338487392160162 -0.10116759342946038 -0.019308226211470884 -0.024654520711126188 -0.024882329376429729 0.046959764561309583 -0.0094028747517535278 -0.026347225603951252 -0.057400394293140491 -0.036578610193046854 0.047184148887498598 -0.00064341529678295047 -0.071830198865025674 0.039907788725868885 0.10428536407905373 0.006504081577115719 0.13283227699315509 -0.13362275864348844 0.059124278694745229 0.052705625367118335 -0.10251678304058565 0.019265692315100919 0.09319573197083196 0.055879447041165327 0.018381311681679644 -0.032206630285662875 0.087944598052885736 -0.031554383798531926 -0.11336779278103692 0.096797776262569801 0.039501193513111932 0.037351609691058642 -0.077711411180045639 0.0003076498351844528 0.015625079151231 -0.070704312209842746 0.0038318354691603104 0.019386986011105098 0.11823359843441118 -0.030120847308164531 0.0028254402262370627 -0.0025790680383652718 0.03027494256831843 0.070619965330600609 0.072217689870091042 -0.047933178011708669 0.12585077045212398 -0.0095301159841145247 -0.041119283858915105 0.0489601192893191 0.026996408208716568 0.061070024225296692 0.0080830623656634581 0.11751088265287067 -0.031141120135920353 -0.0010647892362447258
midwife -0.0055880372760607772 -0.049513473830728641 -0.012424790092104494 0.094090574999165802 -0.057487600733415953 0.1292750027739531 0.096687896275402876 0.012988896632599042 -0.0019754299308449037 -0.0046416349226764183 0.0074161864236909894 0.061482856237892958 -0.043329442667568212 -0.097785455222086537 -0.023422577380334576 -0.035363595904607081 0.039334715682648194 -0.047980943288641789 -0.058851357363637162 0.041877247098143923 0.070387529907254914 -0.061069730117512037 -0.00066188265853779572 0.029132702674060169 0.057013166344424132 0.034520783384392864 0.066261553899015585 -0.11827721548572301 0.06488211785527033 0.005490437331203195 -0.055514813400355995 -0.0065214028137060374 0.028315963785324149 -0.0063018910243693074 0.064768133804146033 -0.01143240653726196 0.020121620400557448 -0.021893394128775338 -0.040581669490774491 -0.011236149608432812 0.046575433613418329 -0.017184989568732451 0.083307190477888204 -0.064893569112338456 -0.1091280134346601 -0.0024910888452819883 0.053661647660361564 -0.018561078321950104 -0.02239777795932996 -0.080890799063327537 -0.068099040225485963 -0.024591838813583271 -0.14538005071456825 -0.11760969528524398 -0.026399375698490858 -0.00658183021638862 0.023877456545717751 0.054320887721114409 0.014240078597181268 -0.16084928962812381 0.064498941176452204 0.034057800252469163 -0.011360880223882574 -0.021220941079097732 -0.004270085674112082 0.0649136528555041 -0.068488735312173643 0.017014806271381504 -0.014235498094354017 0.094992934056134279 -0.0058968688705289055 -0.0045618284695708496 -0.024566293701662068 -0.015995292045946789 -0.047398338563652567 -0.031270388108901155 0.021415260102884581 0.00023853849338838844 -0.0069956610295121985 0.058550277389338226 -0.01910087296282309 0.086830830364343997 0.0094841072770092336 -0.0027541154114776047 -0.023901416098967992 -0.016244400930474988 -0.012256368526610181 0.045251139776785743 0.036388395325611701 -0.043348645544805532 0.011591490923916103 0.035785530684271177 -0.040913051253007551 0.059741912817166183 0.10922825597730264 0.071299226143063568 -0.058390664483127082 -0.081561138034777186 0.049594513496133842 0.048518623851286809 0.030156092709579477 -0.10246866701657954 0.0020244060764593587 0.088210090234903601 -0.0070259628174463217 0.038106964751759211 0.042507242410076626 0.075021413209762147 0.013797355381608875 0.06531902735571582 -0.015019821116927949 0.01932038475215982 0.017046165098429607 0.059375472590986092 0.043059369173946052 0.013982865746112547 0.02642174969307012 0.033042514183490378 0.020015916489159343 -0.067962858352968072 0.031022864783043932 -0.022613766284953419 0.0086087027174472676 0.043136885375638 -0.011977486373704849 -0.070349300325965938 0.0028108431772612538 -0.052710136284592965 -0.040987043990986224 0.058782121301671396 -0.09340244253596415 -0.040274599628163002 0.059492275413080997 -0.055777839966551612 0.084877774428078367 -0.037711984469501629 -0.019186493131055554 0.0079299074330857755 -0.051356597699140243 0.039098819787044756 0.045334822039975908 0.1344738734828832 0.0403619815282521 0.028130981940377463 -0.057029021931133843 -0.0085343576330972684 -0.1097793257020581 -0.064474100757273653 -0.028442103786259221 -0.1074402743160037 -0.014405505218519301 -0.084640469146989625 -0.11119364403656472 -0.080300971237726129 -0.044067079795941315 0.0065138273667225063 0.0022923654918535524 0.07311891897778193 -0.043600397027118688 0.0037457942735774851 -0.046607320960023423 -0.023541846627028771 0.024304500347766093 -0.0096761360493824566 0.050471151267995458 -0.031826038336483863 -0.076786492356924821 -0.07289764545658857 0.0095906920543356554 -0.024772768675259696 -0.069776385126188209 -0.0093507441754619586 0.060603575868246391 -0.11640819415901887 0.016908397667240747 0.007821737097088383 0.083226326985668661 -0.052893004051311691 0.029851665444752942 0.024896266078409814 -0.1097618845566774 -0.12955899394924267 0.022425789495850456 0.081230813311658115 0.015455849751445131 0.00088861754848672909 0.029994541898326042 -0.00034019042151623195 0.043129486101840135 -0.140692258417248 0.087560363526176591 0.018229696559717047 0.020436794229709461 0.0076166715089760603 0.059784018208539763 -0.026957140004301522 -0.018257531923051882 -0.018175963738089676 -0.030332265895242985 -0.0069160307495922928 0.10092292348556793 0.084409682273770437 -0.029758469829536945 0.15041367097534597 0.12883139869245239 0.032688406080306723 0.0091384554867374335 0.0093569102369601819 -0.0074581156418789037 0.009341054650250466 -0.087606520900820439 0.011545333549272264 0.027506271824014668 0.047458942139520816 0.09355430382200608 -0.10532267262432836 -0.0046217273526964423 0.03730114860053433 0.062908625829467726 0.081168976523490213 -0.0022594211061344768 -0.028975732365633982 0.048281670916569396 0.055643067479519026 0.068634959056274356 0.10510668429870489 -0.08155021529726604 0.11704875986209137 0.022379103601649627 0.056178810137121754 0.032945618931375452 -0.092639260295669837 -0.027928735123235762 0.025686578989296306 0.035279913641416916 0.052981090644143435 -0.065693219202065112 0.054379024872383372 0.076480479533427306 0.12129206721198262 0.012038266122758759 0.035352496993910278 0.090223925920223158 0.053203597377636448 0.018273916029318587 -0.050165138444497943 -0.11713349916439553 -0.080461817356236906 -0.11178452890128013 -0.12499205645728757 0.023587299308929957 0.017532755437232213 0.018605121618365982 -0.012539655009157101 0.036369368621560046 -0.019785658135497142 -0.062161827695440118 -0.048681760221211214 0.058055054564438102 0.0035592268699598311 0.030079105027444524 -0.036032525490571413 -0.00083171360951741645 0.045982082324103633 0.078993942373288564 0.046897302023625555 0.034261104108724856 -0.031444094869965376 0.046040043302186931 0.028325124790978651 0.022752062235699273 -0.021312022616085766 -0.097568233684163425 0.077314483394358355 0.0022079785359207329 0.014635058879438849 -0.088731562864467595 -0.092539898618955618 0.074929803153217123 0.10313900598802918 -0.029061704880237772 0.045810489641267382 -0.0027005587630358984 -0.10573509405196661 -0.023627290622075577 0.0077991869293234529 -0.013572382223516576 0.018459074047450931 0.057469807241663937 -0.040322166388292148 0.015076372709525936 0.034598123412899147 -0.098116132291576938 0.00022233056030734582 0.051326824430763113 -0.001526540653774288 -0.030607272238063719 0.12079455413566886 -0.047210714120920941 -0.0021785576139149274
bailiff -0.015536723715488237 0.10856541486744244 -0.040577408630052304 0.037951646384548079 -0.040446415547242882 -0.081629460664662742 -0.024518600771907411 -0.039117366809765644 -0.061892225427085619 0.095468938869371564 0.02447328424596253 -0.0012086767154361473 -0.026665471188546192 -0.065449336690186224 0.0095400728056881604 0.095262654266893301 -0.0037187874103518717 -0.013425728881889157 -0.022434040578442841 0.047355769612401601 0.021998577086941244 0.052559145294593615 -0.0098221209749805253 -0.028470815495589951 -0.092008125223903836 0.10293884891952557 0.0077956225803828376 -0.067755523018349986 0.074675734167849644 0.0019006978303861147 -0.10610439707563367 -0.070913518420133936 -0.020701863578914258 -0.041415764360032623 -0.063098069859650219 0.052179855413377857 0.030632791420877027 -0.041116722493510928 -0.0253376025689321 0.11585594700239794 -0.012328691316306805 0.027627975317729671 0.10626158877500498 0.020963613720960474 -0.00085605749792753494 0.035639323443495956 0.046150869274127523 -0.026426851356617671 -0.025487241513979263 -0.066846124193008158 0.034376833353500266 0.081781931892581455 -0.011041182727612375 0.081627808499654328 -0.086674700553192929 -0.087675204477569768 0.0061108863189528002 0.020145792041798935 -0.065307486523035835 0.043417480279504206 -0.066917875359087553 0.00011919190417794462 0.042839458550134331 0.031109559037588806 -0.052686362000240967 0.060780554400000235 0.059963440791556577 0.070509682087364703 -0.0062196931859350426 -0.0089884857164528008 -0.14063346563348 -0.042167735462430515 0.021438729172663849 0.011108921492957067 -0.018098051525664585 -0.1297060462678751 0.02966485874952306 0.076056236044160147 0.087759700916571162 -0.06411249917481221 -0.01130505708181226 -0.015334451513744676 0.037679747228878797 0.03155587961343137 0.070274602609025627 -0.0043775292015610671 0.061258502134575163 0.057128089613557281 -0.030974081506899415 -0.022585095664925781 0.022790908220258786 0.079021872234250987 0.00041658160569123221 -0.013691019377524819 -0.013535007796016657 -0.089764485142486916 0.073282014971471895 -0.046906852777260109 0.046808902994618831 -0.053993932592608908 0.0064363628256090093 0.092916343931382525 0.078122858446104865 -0.088759024723084862 -0.03887638674211083 -0.024292018142183 0.088948079604761157 0.019405622118032533 0.028261226563094873 -0.073289803749368679 0.043878434316849797 0.0016481526076724499 0.058834067996523978 0.18424424921896787 0.073726919405878694 -0.029789951243016748 0.049266852479983421 0.034541105760050463 -0.0069117143008850107 0.0011758694388406339 -0.0098815989152831827 0.061147571055439262 0.078919438003729733 -0.02322542761746987 0.041253616165636095 0.05645660254942609 0.020703987791067927 -0.058650913704163414 -0.015181036191535442 0.022250178215364388 -0.010869357566738031 -0.026641396784137975 -0.09330247849620453 0.028095065967963639 0.08034525640598511 -0.018712184861646788 -0.061820710284578854 0.046460296177844924 -0.0016892207093099994 0.010138628585876811 -0.058860974683803753 -0.040262553184164426 0.049853371057967957 -0.013612895574984423 0.040040691025892611 0.18753323770356123 -0.11016447457200793 -0.033333845186050093 -0.016770418929623124 0.031033323423629442 0.0028100966557279379 -0.046983560438364727 -0.13033127271177092 -0.026925569165584005 -0.054535606691793824 -0.075375780084269026 -0.0082978807429386122 0.0056062679206707296 0.019489882533461296 0.079549620942650751 -0.02827326376529898 0.031178477920796643 0.031093273411077361 -0.029471555443539427 0.03084426854195314 0.058563112935145212 -0.012022568742606222 0.013676149892449155 -0.098305234141661382 0.088687981627723345 -0.11538460792785665 0.10696659118644958 0.050549640597225255 0.023697710786301684 -0.06335769578954277 0.00031721568161417339 0.086475260634320913 -0.0039196434706596558 0.041935960314108248 0.0014409239109036672 0.032972729119926811 -0.021817310983161718 0.10749363182413145 -0.021613858663555006 0.017732214988088715 0.012965718938834078 0.044647871163622274 0.064526248497631875 -0.03876710782798333 -0.016281614110707235 -0.083972230646584073 -0.053096098922325939 0.025220062829762562 0.055626035597342548 -0.09899583911517558 -0.031157943869977868 -0.056053710310947372 0.059694609942331472 0.060944826806550424 -0.034447876448861769 -0.0694376630204811 -0.078605290628559754 -0.014854143543443455 0.016254471399854833 -0.073535976335621353 -0.077746636871333291 0.050480013643299529 0.00468908031743213 0.076463848754091457 -0.073591441875189303 -0.12756602053484259 -0.041570831847250272 0.020979191276754031 -0.084534202773015127 0.07660994734554917 -0.12736705266311585 0.001781033879062911 0.010021324870279902 -0.13304672391487438 0.059294549986724308 0.043910297499154802 -0.002954543082177249 -0.024041361108050375 0.017067808631136411 -0.071881215067915269 -0.0029214997820091061 -0.083084782013496811 -0.026643284972719009 -0.055141479202733996 0.034486584314773021 -0.065454057161638823 -0.081662031917685618 0.010789581599189227 0.0023099627053258299 0.027441280671779665 0.1027405891185167 -0.099201651670508581 0.037303289630534593 0.018255951295753782 0.0088605609400875616 -0.072906029420272953 -0.06082469080808197 -0.027720732581773103 0.034662657899954701 0.043836894168066992 -0.12265177372912182 0.022682573400421804 -0.00099743561793266128 0.041718346580143763 0.058587423363126057 -0.063223398376716533 0.063043312390800146 0.043059668543397739 0.012879334311251647 -0.020412498678870378 -0.078907164777952996 -0.11744178938689619 0.054940151095280949 -0.0138583600905192 -0.019444802031089045 -0.025102051043447766 -0.015646002629615741 -0.054666835798175877 0.07373352806591231 -0.02683965658514683 -0.060467351119120757 0.16553277242803896 0.0075267917311577304 -0.00060422034593175886 -0.034325380214667016 0.024019410915795819 0.022827491874016375 0.074813335910692697 -0.037836230857532217 -0.018887786399683203 -0.10504583135238994 -0.12561646582492214 -0.035699981501661766 -0.020035569033380916 -0.045038254152751624 -0.015566462685639566 0.075832013650162039 -0.030533661520372599 -0.0013250363367425368 0.0013037942152058734 0.036367692188630882 -0.031594587479342622 -0.011614720009102285 0.048425192419986288 0.034724496075983657 -0.042857632365226807 -0.0074902080774001435 -0.0090144483094420566 0.02539542834422635 0.028316456079090196 0.03666555393728943 -0.090282084837263618 0.0010503048982016903 -0.0044726467013307932 0.015684710495526992
auctioneer -0.10458311412280537 0.023959209062098433 -0.13121128376726968 0.028108403217079272 -0.064979479300671925 0.0074474702034061212 0.016316260106709935 0.042305205223954444 -0.058934411498584562 -0.054338588932392365 0.022649951835687417 -0.036811801881378642 -0.14852781855693462 -0.034732340355682206 0.060799296808971302 -0.10003377406169287 0.030706018559090293 -0.011181744942888877 -0.04945774573427747 0.079278614884621748 -0.05189933840419933 0.019416174767178902 -0.0059881357416021793 0.043091984680089977 -0.055815039045291545 0.058311221633969769 0.060829204157200868 -0.033171753305293844 0.083009826823382191 -0.07511446705552613 -0.0089048228529779849 0.071551528991744065 0.010749709876295562 0.01112355172916509 -0.0059771456919515556 -0.018828477357993166 0.023823364841826806 0.032775210694129586 0.045627082854416308 0.074325345457661771 0.05429841219350566 0.022834440538019172 -0.06145545682253796 -0.017638489195003656 -0.030600261851796599 -0.10210314636148053 -0.027990935801141478 0.14362427460052499 -0.10712091476835726 0.013804403184923443 0.032513251149998361 0.0022014330603435032 0.018184028053070612 0.047424946878409091 -0.061869475414294196 0.043014694003038881 -0.0635478902101171 0.11934257063884272 -0.056396791017781035 -0.06578445539639291 0.044987858327196512 0.035413543269272416 -0.029823211292073097 -0.083891553101909169 -0.001329075348731813 0.16371768865682995 0.080037468804759787 -0.048320185513063878 -0.061975232121587891 -0.042057118365447774 -0.067519802252701017 0.066907242108240103 -0.022816063733685346 0.0021706248883720867 0.074457406218217601 0.0091781327762565749 0.068135425197884236 -0.0061252411151124005 0.0092892944260013939 -0.01159017842744561 -0.14569634937153822 0.052585766095492301 -0.013122479612339749 0.017526246556768613 -0.015532002957051592 0.10950593570729067 0.078339776380861217 -0.069338925717001551 -0.0099137454438547844 -0.013987090239771493 0.0085835891066327451 -0.013036541027366852 0.037124387719802074 -0.044277108394873477 0.081375192061413415 0.042221428615961995 -0.014321295847999434 -0.073112476371629154 -0.020872266263512167 -0.049803481886401144 -0.080950003255258196 -0.023434389150094128 -0.0063084686642055623 -0.058540391193897499 -0.015426426414506271 -0.11769262187326242 0.045205317178480135 0.079262219892519997 -0.022322412323149198 0.034269497117117478 -0.089923108547868724 0.062988478666425582 0.00098369952610487992 0.032731070330778725 0.030005898346921144 0.10863664079640128 0.021637425949843199 0.017421570837965143 -0.017433461711357619 -0.079434457391962532 -0.12571896141318409 0.01505834983358461 0.053739000649814156 -0.10309008885305608 -0.15215129197616931 0.1028872233463905 -0.022563472756469402 -0.038267893377711908 0.072610357217919586 0.018414098436740196 0.046125418548410103 -0.011627292365610007 0.043190174467952099 -0.020872806757757281 0.069073543042651286 -0.023812194627427816 -0.019749659716413358 0.060609943658433529 -0.055843865405030876 -0.0093519917584344529 -0.032618827692543678 0.047083354515497944 0.06013376822848935 -0.054621087257837875 0.023221614582268148 0.014109241939166933 0.0098135738437605882 0.096234820177544964 -0.06810569801440304 0.014130141049977953 -0.10197775169661441 0.02239375756350406 -0.030631430353264759 -0.064362955531746854 0.055055824795656752 -0.042518700450773911 -0.042140894973440222 0.034242472404861848 0.040333482217783788 0.079327439531430247 0.032165172856145861 0.0083356824128744469 0.055639378415629957 0.046120554100204089 0.048412249699481387 -0.018587597089421329 -0.030168226785203287 0.085668157685594201 -0.0035544703206086404 -0.022875698265396101 0.00074750354099068622 0.066259910167343603 0.048201997438132603 0.038951078103534202 -0.0089862573192416115 0.056106365443407212 0.10622279349772853 0.023172789935459646 0.059481752004135226 0.063016764531919817 0.0060551570279961369 -0.096532272177105263 -0.014715316152686498 -0.0017348063620629833 -0.099215645939340805 0.004148833825484098 0.057419766459030769 -0.078091869687102911 0.023664819863260453 -0.031557296995142592 -0.0041782006794685474 0.092648640861223056 -0.045093434869741836 0.014063480093080737 -0.058649210701913493 -0.014871338824775661 0.068894819612267399 -0.029870054126649514 -0.057966926799833049 0.088500527694732434 -0.070591611212424132 0.066045874446279032 0.019361765013170901 0.0070927258138639036 -0.017417967542997726 0.010388839885308735 0.0112644405623911 0.020773535981404939 0.076757749725416713 -0.059758485057632857 -0.024348184753831114 0.0088210462449855361 -0.02507172638328848 -0.04749737310725418 0.09624220693222818 -0.028538636636188879 -0.0096921428033586287 0.053657386018802149 -0.014478579673327193 -0.045596094517696528 0.0085560239001320048 -0.043696977905119318 -0.038983327593492587 -0.023776882336747129 -0.067966790993409118 0.046632582315074063 -0.04057994759355512 -0.041635172524763231 -0.033885566038339178 0.022181703654671561 -0.062825069239653211 0.024321520371072231 0.017938823830537874 0.04214125530293697 0.042507890565871662 0.033256971231273261 -0.016980167204456543 -0.013565504728583687 -0.038967653260384316 0.017840814207424126 -0.18723315194369097 0.02484273698810912 -0.049244070342709639 0.029076788739572632 0.0027361620335082074 0.018121691050134295 -0.090877080890492429 0.0351434763114645 -0.048317302877089942 0.022282776078507611 -0.015490024570681183 -0.023813635945414781 -0.13653947603558941 -0.044675632818269813 0.020770833510179377 -0.060839473547858 -0.13092013753390239 0.071858529722967995 0.0027655288874926572 0.15048656970122257 0.051388391177819577 -0.0020268534191721426 0.09508735089517098 0.028592505895951768 -0.095532537988395366 -0.044700315388796617 0.054831880013431769 -0.01167233355270272 -0.071745386260991098 0.061616524107581512 0.090621066783057438 -0.054105816077497218 -0.079771005141919302 -0.030592694932365026 0.024027131172234251 0.017874505015369475 0.082306283480994002 0.034963131398345282 -0.044468623522391698 0.058338066181477022 0.02855935558225153 0.014874761954994705 0.09121308814620406 -0.041111253436500773 0.001015408521818151 -0.022140626092043005 0.018320953261832463 0.096022946433460848 -0.11871289484328658 0.0029768621373316723 -0.023414751192521704 -0.024375930125080228 -0.080556343280067874 -0.035280761849723098 0.051350196251164958 0.083164047847987657 0.024425655595630584 -0.025891295823627508 -0.045032178855295743 -0.014154463291008019
photographer -0.049836521304306887 0.011206293999176324 -0.015007128249150493 0.065336176971216325 -0.036485134191138024 0.015325340737583824 -0.027304770751199532 0.10067430889968737 0.040523457908582652 -0.066457441459083569 -0.069860175841700484 -0.078752911291831332 0.051547247686451629 -0.083210727312830413 0.011086462930790453 0.012706438587504885 -0.02022554565400466 -0.014485854745251565 0.042417524154073703 -0.019969839190085017 0.096894365700687018 -0.071946105499335153 0.011374258049005893 0.0057784646993605179 0.0097315529288319359 -0.016584987547101689 0.022094375509919318 0.069515891321651826 -0.098041535091761806 0.020524371247134278 -0.16279008858118632 0.13752077470846868 -0.089717871870157992 -0.071181158776877501 -0.08881003035903938 -0.0028009049861629186 -0.05294778374373698 -0.085010533136327546 0.050951267784270289 -0.06096810890520081 0.013103034299192014 -0.07028601902475097 0.10350111878905782 0.023561428673505334 0.0088872202126737496 -0.034563491758361528 0.038651953998143349 0.01180010123205638 -0.11733032602010006 -0.0056593021446058097 0.031608160123400078 -0.027002435461506311 -0.0017184142889031045 -0.023562097187136498 0.059297159084110242 -0.083914505038036685 -0.029028198892336359 -0.028309713867244506 0.00052093924708334727 0.037427571282669304 0.034934349695248904 -0.0387809771289577 0.070502116056024244 0.032361742114127963 0.061695117479089984 0.059861217460403571 0.024406597031702476 -0.05883855873313279 -0.034560316318613504 -0.065613777256556538 -0.051881003116809481 -0.014301512111458515 0.038135861474885929 -0.0056009743302868845 -0.04952967354760332 0.036196670559291419 0.0054925079936307747 0.049193578319536392 -0.041538261600687271 -0.059883779795455304 -0.041241608676858929 0.063600715584718581 -0.050797843905918509 -0.10090511323084619 0.015974968858665946 0.0055050426242150719 -0.043530265093143616 0.035157131862833792 0.034586722607044422 0.035977063831454555 -0.016472844385474188 0.048444007410595485 -0.011190416800436215 0.026336930141684083 0.089720880181498236 0.0043755888443660941 0.016140425982378654 -0.00031954951569565607 -0.031170283694988671 -0.081917821950162201 -0.030206287038852406 0.086878360221795459 -0.027467888077203174 -0.050593278734782796 0.029809691327165273 -0.02144842421380859 0.016997794714344511 -0.1076918636144075 -0.074813360463390946 0.067670793699643433 -0.074394536673467654 -0.0088673319321466663 -0.032232217598090238 -0.013642023414316749 -0.1413796025159462 -0.049015419436831596 -0.10949835457421625 -0.096029309061962789 0.026603834208925693 -0.00028729373299206737 0.013652719632415348 -0.027164717145470998 0.003239115671389911 -0.070831359019371751 -0.018906735388128915 -0.030720374021216336 0.041692186864262425 -0.025404019369396867 0.053201818923578711 0.11764954127898013 0.0300994919862742 -0.069552993828181336 0.094581141408457109 -0.081851973357492697 -0.0062611315410598146 -0.011867119723580417 0.12274796048704065 -0.035591331466273815 -0.015234255755337938 -0.026456092696438789 0.058835383293384766 0.039698010702504803 -0.00077380452807054791 -0.04243774669141636 -0.00084099014800237523 -0.054330771318204317 0.052264228555873371 -0.016974229608846033 0.017045259182157043 -0.0085192034587188142 -0.026356651293803376 -0.047026758512531068 -0.037416875064570698 0.02885304832097179 0.049786717038785289 -0.021073388066726449 0.069080521819357268 0.0086056088455465623 0.015724610503795606 -0.063294703470053962 -0.060846606552737027 -0.047048318077136053 -0.064269730601104413 0.074426123942540098 -0.0099630257736219377 0.10037698746222784 -0.012280094019231027 0.12138703386240166 0.090624209225606517 -0.050894109868805902 0.096796929838945098 -0.025545911387611097 0.069536615244217864 -0.053747326046607286 0.0033086410890308072 0.032607922258803546 -0.024950098613837558 -0.018973753879652954 -0.057849325687420135 -0.041563832247079234 -0.06613471650363989 -0.074941380823758563 -0.003892420617443426 0.057074017003679485 0.10576938553959205 -0.0013951879482360548 0.013382640125425714 0.059221282786973299 -0.066309867075004456 0.098378967347091048 -0.0035056854818159428 -0.1309275590211289 -0.092524459222185801 0.021213775929270564 0.082255254205491457 -0.036258006684950578 -0.077395160106940364 -0.087368046456621953 -0.048819210686085412 0.023472182103745149 0.012273743139734984 -0.091890541171435997 0.043693883804370622 0.04575624835650681 0.0011115710402153809 -0.0027719917716151421 0.035390610248517286 -0.022586568670862676 0.047968359962023401 0.0083226604511570518 0.032389485429821209 0.059929740107597718 0.03579689940785627 0.040391927851651445 -0.024797677505932519 -0.02802375716151476 0.052379881414064473 0.036622847999157486 0.098597237047665584 0.066791531146257008 -0.09567499683744668 -0.027223212088197713 -0.022221225971432394 0.095073835954623848 0.061548712993865405 -0.056683103657857226 -0.040966348189227786 0.03540849298815088 0.060162382851242251 -5.64894018332279e-05 0.031104100845503586 -0.00028829650343881104 0.051052547599391401 0.05885627434435859 -0.048025517877487781 -0.084766358532545452 0.018514317886636551 0.052028243244073021 0.12813417481331657 0.070003404887177045 -0.070055883207223293 0.016621922925223416 -0.041760375254640998 -0.011305902530219531 -0.12005669173638837 0.082290351171127485 -0.064997240560216954 0.051402013100081585 0.012502207673184754 0.016538024464512528 0.017005148364287296 0.065723413492067187 0.049939639531913702 0.028733885766217084 -0.02726282152084409 0.075487389332010491 -0.11018441668819673 -0.087845198060864174 -0.013704028053607067 -0.086682485727864841 0.079643705705355311 -0.091476898362154224 -0.066545685258397005 -0.038192016619903575 -0.1243637579335603 0.014138227657047085 -0.041348737986252708 0.022176602686552301 0.023009236414165142 -0.032565304514816935 0.07037075312750081 -0.0019904993367862258 0.0117409377756985 0.05946295046463853 0.069562520147425394 0.0948627527755843 -0.0060209680190647001 -0.063232364573948069 -0.014093270115351409 0.0066924899615673919 0.040926237371358039 0.022984167152996553 -0.02086631596947388 0.11408017987379597 -0.067004452737782244 0.043537451614678604 0.074366793357774422 -0.087335623545510568 -0.02725162391752212 -0.082018600380059953 0.083606821639294157 0.056711682615589426 -0.03575461592068524 0.091989481188848046 0.091214172505107369 -0.061787205231782612 0.0070170533294967663 -0.016364712305633661 -0.0013766366949712965 0.12100263852448324
geologist -0.084687025256973386 -0.014197059354602869 0.0091823208203396199 0.083369922364516638 -0.087124249445224983 -0.0057830344525150361 -0.039922788187378183 -0.087171125649928877 0.076925374972696275 0.059260661067234953 -0.018810557883981765 -0.040159538405359289 0.080263062284520056 -0.015619760628775283 0.045067155504324441 -0.062087956200766362 0.015942478760076199 -0.02673771332421709 0.011521392666611906 -0.0019011093272336026 0.065023218910475009 0.012329626434358719 0.012236550937654207 -0.041848943284634087 -0.10360115078456091 0.0055569456096109856 0.015112583785823608 -0.040585316495738474 0.015449686312069768 -0.031159984014912167 -0.04946184200235982 0.040440626405406917 -0.069454120238137212 0.021824004010922188 0.0013502716149187215 -0.013984508765764932 0.028288520327490078 -0.041626577461598216 -0.050464011259603668 -0.032414303254137328 0.017148737197366665 -0.086549042875591106 0.047133431531164595 0.10027801709585819 0.027990340281683984 0.019164921684162211 -0.017743574235396409 0.011654406012811444 -0.10137884637960883 -0.011603806788239355 -0.078989620261426516 -0.0091625211237679315 0.081773762210122183 0.0054774083669725856 -0.13700290044464519 0.0021579976981380544 -0.096495936594314338 -0.091660410698251205 0.0075025619470869276 -0.023402902891382357 0.027483671123259792 -0.0051265983584844908 0.028725129021122148 -0.010903032912142297 -0.036667176540830196 0.049812990467199565 0.15129878905393065 -0.11905506780102633 0.020966186387658247 -0.019522162363331711 -0.022182429287322471 0.04456860929833991 -0.14588467202471714 -0.0410953702176792 -0.028809912337211169 -0.075340214649730536 -0.021173829359397222 0.037511455910028031 -0.025895295464953345 -0.041718129904720291 -0.070605887202811593 0.14001143895448664 -0.013827465018598047 -0.072833268453038474 0.045290705924591099 0.026833327243558996 -0.041505579315882356 -0.047008710365580547 0.038469456613381192 -0.03578194395308238 -0.054277737430027069 0.061938527721511663 0.0014589161037992604 -0.063039357005262295 0.013855049211257747 0.038725837299758162 0.11715785072183674 -0.030315196961186855 0.02749162484752363 0.084640825964972785 0.03750671752110489 -0.023336396218282589 -0.054953803992453476 0.096599335009744242 -0.1192666030208093 0.050084263233049264 0.1665129097452501 0.044220168484313385 -0.04884771295228587 0.027718052146779332 -0.035290505330482558 0.035898203709875107 0.053832667327603674 0.11221232651148647 0.025024278043974946 -0.064710992926075322 -0.099730733175235675 0.015320057529386756 -0.042750083320909585 0.019302504191109061 0.043286875094630882 0.11025824876521921 0.094106603979821596 -0.06580522231096872 -0.039204753037346836 -0.0087164356522895833 0.031958910232988524 0.090686502546370368 0.017283612053500295 0.028829204349255375 -0.047791559906953406 -0.056896204994588716 -0.030971633055217402 0.044848005016629271 0.037596916138820352 -0.0078635256461246066 0.031632130625467783 0.0055303767860062436 -0.039353843060249874 0.0024431471744055123 0.012836634049134566 0.044474010748052968 0.037543440035259217 0.036096200675591973 -0.020379133845716522 0.083549473459068435 0.075737900862922522 0.033103908070629851 -0.0049172631049872522 0.086395045235589094 -0.014003631549633314 0.019759927950367778 -0.064429904926027695 0.025520793511849559 -0.06173934615856401 0.036350042939331549 -0.043350166432389946 0.069747561895020169 0.0062981650197305502 -0.048923188718704443 0.06826698458471514 0.071899298150652657 0.0022789958438539193 -0.021266735627925908 0.0056696515747113579 0.043582178261447918 -0.10117103417969402 0.014273212033724744 0.08649319757756839 -0.011648483026657521 0.15716660682253472 -0.0088176341014337602 0.033394303620347919 0.033843942883518621 -0.032326981515410913 0.058805268046086157 0.069481196746269444 -0.037126123353671353 0.022658468145922095 0.017805511747748866 -0.045514594801209403 -0.059175200838442632 0.08734458453015094 0.095044974214778893 0.049894050763420406 0.062937650871590645 0.028844604113255574 0.04390760404356206 0.016783204337581677 -0.053443611751378815 -0.038220014282213097 -0.057131093702635735 0.039310689875414147 0.0070879529163122854 0.050474334178329083 -0.045703284217255821 -0.045040586680719696 -0.0035317920294966432 -0.056139755048644768 -0.074010758100438445 0.11644100016903616 -0.093288893434228512 -0.0044060247858157455 0.10886093171742077 -0.023108276637268624 0.045713437907805403 -0.016323242155685563 0.11061785863885029 0.02494981764661134 -0.17639566598533513 -0.10761304314887701 0.015513654562532142 0.036427718672035862 0.027724652045636563 0.021544439064457004 -0.023638976196660163 -0.002635390382144285 -0.017064630793980955 -0.039796205511860049 0.021574392451578273 -0.036034940075942823 -0.034497332870384298 0.013952016956006267 0.051343997773900862 -0.0018219105409468547 0.10440786149872527 -0.00991626341889865 -0.034671468663309647 -0.011747989194043434 0.041367319896232199 -0.076158094423499439 0.050287337044040925 -0.070819114704352842 0.007875879302959932 -0.059040495210484829 -0.068094371845372231 0.01624285877216803 -0.10095645285274617 -0.053695254048832651 0.074425367131213088 -0.10394146864614776 0.021324950120410181 -0.030271536091823651 -0.033018786298189176 -0.015700651696820295 -0.044286336701061503 0.051299659991834355 0.049201738296114662 -0.043308705529312479 0.078933944191579619 -0.024974524960281987 0.075432613233731738 -0.025333119464858098 0.070350521885489584 0.013595960874067552 -0.019620483933486838 -0.050030448673136468 0.011654913697338924 0.048172492530738596 0.013190997849315015 0.10312866571765364 0.017445732645941972 -0.02371919035200187 0.030321627631868259 -0.086737224607110031 -0.093116111466709769 0.067953574003084674 -0.021018647122164426 -0.11723298803190364 -0.033660330312746997 0.052608639931851435 0.021000539707351003 0.053581701942853152 0.067690254961498816 0.046880435408304152 -0.024164598910776915 -0.058836406030438215 -0.10110520441929756 -0.037553762953984625 0.029356688573306214 -0.055990326569390077 0.011674036481207305 -0.072982358475941506 -0.011493808473952203 0.075438874676237305 0.040713083768487396 0.0492673988283353 0.14204725390967804 -0.014017000575523597 0.021165537178781727 0.014439563330562078 -0.059529733866798905 -0.027245397851696242 0.098555274265945597 0.0064761930606999059 -0.086555812002624147 0.022685713882230139 -0.028608361579801945 -0.067739838817015952 0.00024639622400321573
shoemaker 0.016958198344398125 0.00053422391265383251 -0.089041216926908542 0.058268856425883288 0.0088055693410430715 0.072191280874593824 -0.042832177397557625 -0.060022138553813539 -0.04017470136373269 0.048256809266843559 -0.017660928705122869 0.027455742525219456 -0.076725893933511521 -0.063597629211671475 0.098093787307500332 0.0265113267857684 -0.052356424081792724 -0.071325714104008744 -0.10864253902091103 -0.022222297256846785 -0.018610837294090431 0.10687543617484249 -0.086947732506343023 0.028582839808267892 0.067080450182525106 -0.06169479982593698 -0.000483193568758541 -0.044350684505830712 -0.077099939266716253 -0.019963141407315654 0.007113062935182571 -0.015492316278267061 -0.0054322509831314092 0.020623346481460986 -0.0047071948469524756 -0.055611734769446523 -0.082589067820647621 0.03025124855173339 -0.011656003862722076 -0.094746870065006719 0.023228551850532062 0.086870301047029669 -0.074097122468127691 -0.045264623789899858 -0.043801931120262247 0.035976569634874563 -0.037448298927910295 0.10694542570900444 0.021178301471322283 -0.085170884282100026 -0.092771570503393158 0.026184413645189187 -0.097503040201434715 -0.0010156455944715648 -0.083088031183179353 -0.088707924993342416 0.030849437582950421 -0.011166077123588464 -0.064564725103964882 -0.14876709598421886 0.01672608115515218 0.012544427974843576 -0.019987239069710651 0.031994962490183264 0.10462195036352194 0.017221677932496383 0.032682631811911132 0.041038496247376946 -0.09358787881702374 -0.015321151999784939 -0.02588035784614641 0.054071610640495572 -0.013020179618450721 -0.095371283022947728 0.048655838205913682 -0.028560514032813698 0.055439330170105834 0.0043894955184654704 -0.048214461168958229 0.038910282842771579 -0.036649886672381879 0.020175059085436379 0.039211326434014981 -0.029935321110187197 -0.053936415666911861 0.044607253734859811 0.020875308804443989 0.0082442355581948661 0.07459041579244885 0.016266099305318235 -0.04064761798823454 0.12827433757029547 0.18918312834928969 -0.068337249589640742 0.061746893301996751 0.038356213796380691 0.057514564155181018 0.016461184057501275 -0.028126933298397799 -0.016573344500854469 0.0031461624520999838 0.0064259251795369451 -0.052507743226537784 -0.10663056139962272 0.032497292437902538 0.06625368773594377 0.079980495866389001 0.0079040332655595895 0.087380781674676666 -0.021841695941961069 0.060455364910841268 0.011377286046932864 0.065978159316648008 -0.0049820145114719099 0.078889722265627155 0.03192390982385683 -7.8671780171907674e-05 -0.012041389272347977 0.021499721762384984 -0.059857530257012403 -0.055216781170340248 0.029958001263029544 -0.086179442328808351 0.090807611018200757 -0.018297567682955446 0.0023734425572132958 -0.029052567036276282 0.013968670697865634 -0.087441734585440495 0.04590427497553181 -0.0020484784922689746 -0.02110087001200894 0.044461959005713494 -0.082860875277367671 0.078077843669348584 -0.10681749547187805 0.0087890907924935511 0.11765789977574587 -0.012951430405147343 0.017672445970238124 -0.013603130421976794 0.0044995296974896922 -0.034526811739904857 0.030640177735240907 -0.031074644413127208 0.053600465902934533 0.018690040640344581 -0.043998079004609773 -0.0099829882132104735 0.025418781298065737 0.041290990136442191 -0.0068635812539167016 -0.10055174887179021 -0.065734879239674956 -0.059198211126337469 -0.07181121112579035 -0.052958156886891358 0.11205873704279028 -0.12126989130458446 -0.074416239306167337 -0.076295325406895015 -0.12622018903981591 0.024666083725610188 -0.036370282913122262 0.05774207443838085 -0.048441439886075827 0.049453718895359856 0.054536376585069699 0.034706481075702865 -0.036213648107554772 0.010687490460876026 -0.033022302538464166 -0.066308084665026579 0.071464098474085913 0.041033003397860437 -0.043979651380425359 -0.061483945279980738 -0.00053316078048934728 0.059653054504043075 0.0036293560208585248 0.043673469317053612 -0.023385009467405477 -0.05644416725423846 0.030047481553540388 -0.068577694647508486 0.052600412913542081 -0.037645155567034148 0.0074298763201991721 -0.014081894273383312 0.044987855049745527 -0.01723514427324653 -0.091836014198646135 0.0038731676639138062 -0.10990890661750703 -0.06949535489415333 0.063068543771145985 0.0047672618142458913 -0.014802520692210224 0.063359841984214946 -0.011790312892835379 0.066561818874950399 -0.10314596854182828 0.075291551454926858 -0.029625595272933829 -0.0099404629266310641 -0.018625012389616898 -0.058905849781104032 0.098802364895129752 0.096462411001097745 0.048270807173675948 -0.042436869421063193 -0.062029686457749832 0.063151113702587677 -0.045156715875204596 0.097634159835054551 -0.025923946264890304 -0.048409014355059031 -0.074615399398314242 -0.050332929195389148 -0.027778757514528886 -0.078630318017492748 0.044749004690124508 0.012955505745111201 0.070585242551444785 0.075313522852992892 0.075289425190597878 -0.045742678886530046 0.02971330367650386 -0.049299210354121333 0.095578770983716421 0.013273382262292289 0.051508221803227575 0.0062838198468840858 -0.10269980741013264 -0.056033089483970837 -0.05731079715698801 -0.068624295274051769 -0.0018762510816223656 0.017625136588918532 0.11034248735192294 -0.071110429840700498 0.0066888732015529606 -0.074490835746375397 -0.027448300600068056 -0.039060184477964 -0.019014295950512579 0.0032251886096600528 0.0082254535566222923 0.046474999759166295 -0.0066066576474994362 0.0015433135254444052 0.036735291622928865 0.056250500011608064 0.064812080520901774 0.0068247769299129915 -0.068420882653246917 -0.035903567892913241 0.011056574510646483 0.0068272575716301232 0.16500679417411904 0.047521298997713853 -0.013699875448944949 -0.078564581011988738 0.053059686008599706 -0.042898623157837948 0.030395834526103383 0.0068743897642556352 0.0095658860273440983 0.013296062415134639 0.010337365601372219 0.019937626235368006 -0.043853138652851613 -0.0067611661887379566 0.055675877076703795 0.056330589301332626 0.039148247258922193 -0.012741461802661508 -0.05515547388218827 0.034162157407486425 -0.05772010304031483 -0.0050986046721771244 -0.00084926541072962499 0.044176330830855134 0.052337464891526068 -0.027679709034537679 0.056188483968679759 0.086812183155371148 -0.068304646869929861 0.02214823238272098 0.0023277278741404305 -0.065328939941535685 -0.024542228828447657 -0.04623827566387425 0.029822983478139917 0.039542846480640298 0.20589273095589233 -0.014546660217957443 0.11896395763981599 0.0050188697598407316 0.050651514467346559
athlete -0.060348661346043671 -0.048928863343787148 -0.058309405379038656 0.029253239282871615 -0.016819744969848074 -0.059958056269790033 -0.11561432181991464 -0.077807787517320509 0.0033118210998403907 0.053045090092503439 0.016342909307857586 -0.050015864505673378 0.062044057359247895 0.051957380671186097 0.0031443177443843916 -0.01586625071072487 0.035244228745719114 0.056557879805919475 0.053343090248140275 0.0101527218800122 -0.028562332207830061 0.013093415037954309 0.09057434082782051 0.18055569144694952 -0.0127761148128199 0.026636751879517175 -0.035550373884813642 -0.07960605821289253 -0.056722018929077737 -0.043028354023263132 -0.0094671267507039237 0.010361127217614431 -0.023915265015501626 -0.036462966161790615 0.058747109707460672 -0.0088594401588170425 -0.072771354702742874 -0.076721671679723158 0.010457981694817847 0.034215836051756696 0.064949691675350377 -0.046688284633490937 0.020237804984354006 0.023303151802170349 0.053803281813499838 -0.07419176899182113 0.029795411877381415 0.052147194198721866 -0.059287688718250492 0.065292843369720063 0.086077955829459374 -0.033893755075462342 0.036483859815008172 -0.086551073129436565 -0.034917721147980356 0.028083017637830707 -0.018675738809055036 0.083910504905424607 0.011446003601207358 -0.054195303408615676 -0.035434219338112652 -0.010081364742328514 0.041392982996844942 -0.026699609904027619 -0.088331106144657667 -0.16152883302492491 0.10338622274191114 0.02485565647514942 -0.044059579754949958 0.031359956960689245 -0.083921128796891162 0.016705361071724847 -0.054487283359088132 0.024939762282592971 0.10564291435426496 0.093394629882475017 0.005620215650664769 -0.010366085033632157 0.020982716841017206 -0.0063229860711773072 0.08096396860717589 0.071841587134561638 -0.10595578795795496 -0.039815866308635019 -0.036745561674800947 -0.028885475573271074 0.089075486806747553 0.068492936544303856 0.10918527389892957 -0.09311929402863349 0.01390649686486123 -0.046900762462822009 0.094410805101250883 0.080386560105968688 0.033524574846999597 0.01706958348416987 0.10326971406549461 0.030571487149013175 0.0023783351696458582 0.016305725687724645 0.0040372558221482436 0.018441836131933075 -0.03186954962136828 0.059570461296118593 0.028964623564696902 0.013879583006479294 -0.005803831908178376 -0.0052237674341045343 -0.060746703146323883 -0.020098809070999927 0.07748163404929731 -0.0072191113163811264 -0.087456228682386963 0.010458335824533399 -0.075035305974265512 0.07765940716650431 0.010721277138330607 0.014530827553379047 -0.023322097741952368 -0.0029665446271773905 -0.11951718541501098 0.062507081962331859 -0.014750742106736712 -0.15676561128589547 -0.012355939905317694 0.07151649605568508 0.054345277343151858 -0.11329459511819261 0.020336961304708509 0.037226646893378068 -0.054887981132234982 -0.065655295133587324 0.084279153939314025 -0.026519180813953977 0.053383461035713183 -0.03515162382510232 0.12269549961208835 -0.056688022476384756 -0.12882548498828991 0.028370570966858764 -0.003931371037198257 -0.14024970961199085 -0.037630708898822661 -0.023402308122524852 -0.08110668288254326 -0.078557303060285882 -0.025657406151158683 0.0094265788982732437 0.017259574076563405 0.04587874410373953 -0.052774534989821868 -0.017109246012311671 0.067590259899362334 -0.040249675210185965 0.039010221205754682 -0.060472429681629025 0.014195289647893721 0.075476905729558591 0.032926626822290389 -0.061395468785214777 0.012240670682905585 -0.090737948756405451 0.038078682988995687 0.0087103515485697364 0.093356206808337644 0.043974765688075304 -0.075413339445617053 0.017498611634560866 0.075233618614974518 -0.0080233399003992525 0.053170097882093224 0.021266905937747525 -0.0097787609003895035 0.034394671558110358 0.0064660544762602332 0.054067108451585924 0.051390241931729898 0.046349559560565641 -0.11903291302899389 -0.025619514271594642 -0.015647929741087183 0.020566614425243851 -0.012435973221032402 0.087481194827333353 0.038335427032770736 0.059538589621718943 -0.020006735344956457 0.0076600028122431113 0.033854800806751649 0.030291370544011705 0.042397117805292053 0.074686842334162534 0.083617108436089937 -0.026538303818593775 -0.0091469934878451002 -0.0066206320970985917 -0.0094434000597619534 -0.034604493414574798 -0.017059667852134419 -0.033390182619947688 0.082600224957882953 0.029386569120776865 0.046326895258770324 0.0048914166960591747 -0.016947585797162275 0.043533874192213315 0.00064876563889088924 -0.06648218801940077 0.085743480313120693 -0.032986828873934192 -0.039480682532865241 -0.03698902585424281 0.017882488246219016 0.083033502664860592 0.092279829537917954 0.038126136370879624 -0.059266440935317383 -0.0071663459887639086 -0.038699295315500204 0.037062861899935358 -0.063207196409977767 -0.047090930120073329 -0.028558082651243443 0.040118116020858477 -0.068683812460986288 -0.087385225674418823 -0.0048956662526457966 0.17650232272274369 -0.0340534675771762 0.040764402751740501 -0.0055446089563944614 0.013695081424676809 -0.049141341173118219 -0.10120938738041425 -0.069968240939292645 -0.0039336728803493438 -0.099065131952748145 -0.12301474755065829 -0.0075133931100046679 0.042412345383060782 0.025694943901007173 -0.05383710120133503 0.070975208785464178 -0.018014401565262059 0.0030508274994787174 -0.009334859301945329 0.013393539971884456 -0.050692783456950642 -0.01829097687310801 0.044411230562492895 0.045978077488951809 0.14085474023101111 -0.051581117848412322 0.012986821993573218 -0.010655409011237973 0.025005630409685602 -0.098534114444278231 -0.041066298334248408 0.031111180835514108 -0.026790975370639979 0.0055076024011192987 0.020639919276363071 0.025233335816785409 0.11558191895094165 -0.096227490542031599 -0.026338751723880338 0.066666512536345479 0.085986059168273676 -0.032507691368792613 0.017011329145961599 -0.046523614315759354 0.012502726672413913 -0.0028618992962318348 -0.041288514730757161 0.030068977082645176 0.049719457933756525 0.027969164934280803 -0.03645482117833293 0.065654409809298445 0.021731169994835927 -0.009864814421268589 -0.1161001877896517 0.085544636477838359 0.0019103527505441606 -0.028165352796696498 0.10494262284176128 -0.017131733249249208 0.052578170062548397 0.076752126835260615 0.029308129388782144 -0.072699112240770317 -0.017868323057596943 0.031699036163330085 0.017536326449267135 0.022974696490996059 0.019491476608828596 0.053521571624778386 0.075191831308539403 -0.085375362473804603 0.083155146222152629
cashier -0.062774470065691979 -0.038131237856584545 -0.045673368522496677 -0.039743872860460987 -0.098532344522485008 -0.016521455624298288 0.083486301602895704 0.027296135995531871 -0.085485124562784537 -0.09816053396917053 0.021317502374908356 -0.07606628786369625 -0.040001392161948986 -0.071440586036190606 0.036991601202225638 -0.024883462228870095 0.0051037959653211706 -0.09187815496749864 -0.026825321555284904 -0.042112504456832935 -0.0044606346851384215 -0.12824934394444329 0.063014518093015434 -0.037399810243382937 0.035042280185803049 0.024478347059179437 -0.089118603611694713 -0.14367083726613136 0.057440999642082574 -0.055104580707451528 0.030315026577215923 0.019320863324290095 -0.0086073324126324617 0.0081841999914596016 0.0551402512255375 -0.00020037367557476139 -0.07596746596920298 -0.022802014701578052 -0.045561625164819201 -0.039198805505014651 -0.080204431946547222 0.085211589926645695 -0.050800823504915694 -0.0095449574594636804 -0.066487115825660317 -0.024814851079286368 -0.00076655215396993184 0.063043636883289692 0.023472838832521346 -0.035165853052029447 0.083465736457264503 -0.02449836622749299 0.021255806938014765 0.0072098124719071274 -0.050647403878658168 0.040398863649192658 -0.01985683105777572 -0.029124614032316275 0.14148055826018927 -0.0061204057307713226 0.0064556358038037566 0.12955259180165568 0.05402973336145285 0.015984577928616593 -0.060334497433148088 0.10415736683371546 0.015913600877323082 0.0079084814460501883 -0.0029339001125710524 -0.0079911060134534046 0.065566962052993658 0.029120610198653564 -0.10070169439791747 -0.014769050427105393 -0.024312733939494572 0.065721109649008028 -0.064266262089930234 0.022416918700200943 0.068121407929803243 0.038061898737243957 0.029554298181300846 0.0028902219271596599 -0.035217720897205471 -0.0038549638474337836 -0.070256179241785038 0.088896208850975045 -0.051065258519093826 0.032897863274542916 0.022479524099290604 -0.074176114390018255 0.04909737427387139 -0.017770833719503318 0.025956853635355059 0.032198466330642994 0.15728241577983484 0.0066767566174489295 0.024832504345890141 -0.016784434698962711 -0.00017871657530827946 -0.060155780857839812 -0.010626356533274064 -0.0457907536457898 0.0067147930372446832 -0.040681315914852988 0.056889016573946107 0.023825176194839908 0.0084597365444297988 0.10915706312380614 0.015795851769151534 0.10045746054449212 0.06005495704651518 0.18925320956902095 0.082945602065990512 -0.012701798310072045 0.036926083924108552 0.091422263907267237 -0.05495152506607244 -0.035690173269405365 0.037338114806489353 -0.047224126097040312 -0.0033730478683947568 0.036257261709996609 0.021459456477495382 -0.0061624459842297879 0.0079437879792577295 0.050456857794800983 -0.079643349256450044 -0.12610583699537922 -0.093984171474084596 0.057536909657548423 0.028313109745860449 -0.030780017259408033 0.05472767436583905 0.079222400744547769 -0.001276312976208721 -0.0069348218962545713 -0.050962432790937845 0.061702716591159952 -0.028665265115739802 0.056884102778087323 0.01608667568701572 -0.0014557575212738568 0.047882028764799411 -0.077086355485491462 0.054157674046220391 -0.042681412821816318 -0.024044477084092943 0.0068338160924907273 0.024709295464542171 -0.047934078602414651 -0.057552561007320847 0.017637251269120142 0.014217431343847352 -0.089314427476289135 -0.034313582459189654 0.033489884679306484 -0.1051905379111341 0.024836144194674423 0.12199116993718688 0.011781462544966171 -0.0059959229023488552 -0.070638909341452352 0.025625081418667695 0.069369330085494549 0.048784711263301514 0.0013447421333532353 -0.081983044054986964 -0.052270230459130602 -0.011995485653481993 0.013681827595240156 0.050203524319414904 -0.0056843518464142579 0.091192953433857415 0.017770287742185673 0.004061161281063398 0.098565649138861192 0.074863863817808463 0.0043678185411392132 0.012533091318920542 0.12890287879366125 0.012770409459655773 -0.038228785804003317 0.086483171099434847 0.090604753870317328 0.018946504876826621 0.053178008745930705 0.1100823126847708 0.048269126683007875 -0.043489095267048646 -0.079988224928760843 -0.011747611951272342 0.016139635486827033 0.012097219427002693 0.022187426234351916 -0.036293478205400222 -0.023202398067849142 0.029763953471275525 0.068291570860468456 -0.080528924465666035 0.030177622285609249 0.025629995214526476 -0.0038293029135045911 0.11489983454320814 -0.067200890172258151 0.0309418085378694 0.014013963796805952 -0.052365776489718026 0.070594685178723318 0.014605257231812673 -0.051945191962694162 0.022530663974709774 -0.022179054582148069 -0.0019680662376616439 -0.086287893212158087 0.0025233251697039665 -0.038713431669630559 -0.0067662968975422833 0.035714924241138486 0.0083603686726188824 0.0055660567609250701 -0.076055914294661048 -0.0072420251336480302 -0.060421853803970881 -0.10244227008656145 0.060206374755941344 0.073391908969444558 0.064600764193205817 0.066678571871713582 0.054971544234385994 0.021628891438403741 0.039255769138488675 -0.06626180918591322 -0.029861865403572732 -0.073317838046684403 -0.10231105353788807 -0.06498658816433979 0.055055988726181351 -0.19958055252466619 0.11354526481813734 -0.026466614457593848 0.034117576602156037 0.071117731449024738 -0.025664391785537945 -0.021286927645120385 0.059554113853797892 -0.16887733607460653 0.0037517741343993704 0.0089582138354373127 0.069620479651610057 0.015928342264899427 -0.096577745725325195 0.071088248673872048 -0.015728878551520734 0.0061655398556964272 0.013280352274333777 -0.076503433702688611 -0.044572132272811954 -0.013112191260499917 0.06207452714447443 0.08217613803299316 0.031186588368612406 -0.070759388336212106 -0.0468131871692948 0.080991913231026794 -0.12050247178441524 0.060976202773817129 -0.0075201095807672256 -0.0012433723447109626 -0.056915587470071374 -0.044599249146254863 -0.0023633538156347424 -0.010379210800821268 -0.096316404582613702 -0.014865870404767313 -0.033183955388987531 0.06747788266474207 0.049351071734135894 0.045633876163187218 -0.0039783547212209665 0.04585026517341282 -0.077335139149897189 -0.0072236438972874016 -0.004744906875190899 0.027022055382075385 -0.032386646512790412 0.0012499240725226714 0.053126140900754681 -0.067893371403467934 -0.003505902349021075 0.0036551361491766652 -0.0096883675015644165 -0.044168655035074222 -0.032052508394393261 -0.028144766739587379 -0.016611541881709282 0.025096393382750631 -0.054930777928002029 0.06780637901752358 -0.010201040202830632 -0.056156860990987642
dancer -0.0690774092446831 -0.12060481102712965 0.0068723345795693594 -0.022955783271025508 0.033346412431543251 -0.040743975949513747 0.024825424715462608 0.045257923306898803 -0.03979252083466224 -0.035295288229294841 -0.015649829451613351 -0.02789884974271015 -0.070795492889575443 0.088159870173154326 -0.01380702804166615 -0.044242502121825858 0.038484430770510815 0.086189458060303037 -0.062733517978902892 -0.093793063040645108 0.038417571762440164 -0.014804609443335632 0.11656626978963154 0.12244729099953805 0.015959052363940091 -0.00099452774505087 0.012899931307169203 0.02317211073463871 0.054853476715191821 0.080602391479630234 -0.045871547568470269 0.051609850511149045 -0.053876628034775012 -0.051531901907989758 0.012940593155827554 0.12586240413053124 -0.064607338111344406 0.072235372344635368 -0.00035792069945512074 -0.059186454738231808 0.09867087769195311 0.016743681396153787 -0.021538243724912278 -0.042491631847975796 -0.011510838983239877 -0.071520655977110922 -0.017465951545840054 0.034777613073055533 -0.047532415331455996 -0.018773398734913876 0.034522552386016793 -0.027688147436025976 -0.061853582716434645 0.062498064981731022 -0.065729637278068742 -0.05792481239843715 -0.031327463250333004 -0.079925283304145528 0.055287899548881615 -0.10599756423261796 0.060777088398989473 0.051750961590682765 -0.019984896818655548 0.019528294794788462 0.081172460954694145 0.0063602845802590699 0.055214451071265547 0.011101166840037764 0.052722988708017553 0.0054944925694980756 -0.064737359595789495 0.0022791528688698103 -0.037829180347664595 0.045669363356564324 0.06787667931849127 -0.024298267151828666 -0.066046896128865523 0.072236979532329354 0.095605167165636801 -0.011594412743328184 -0.00066328636131624756 0.081979429895854508 0.05606449264262528 -0.0090005725239720134 -0.11274582392221004 0.083617797031124166 -0.03050008302545875 -0.0094504243595242739 0.026764175230741965 -0.024198139358492094 0.079412268992218843 0.062835252959933474 -0.0055149038532119506 0.0097665581789352397 0.046232521924544003 0.06612002316894279 -0.046693945511493112 0.070909442497080463 -0.020860492674349976 -0.11469421756365343 -0.049760620350425826 0.024003348209978577 -0.013578003795270304 0.0074748692460521833 0.099914840967113699 0.0034244348196184366 0.011834687303582071 -0.00069366220873295979 -0.019957253190318644 -0.0040865961495488807 0.018830293179281688 -0.0043218884279513483 -0.028525010068294863 -0.10501717973927432 -0.095555987222200225 0.045971353924268044 -0.0096183754735478938 0.050601179514390922 -0.031336142063880634 -0.0033866659088092974 -0.094700963368989061 -0.041362582492936631 0.082730950861571687 -0.079458716716575617 0.00097893802441901233 0.0045518769869635975 -0.0055388509498526389 -0.029213368557637603 0.044468151274064296 0.13187923270058127 0.064621481363051667 0.003075996527557951 0.0084828973677327033 -0.063504646634486947 0.085869788427965277 0.032324723214463683 0.022003203124788196 -0.022047561505142758 0.035902001583782081 0.066520052185980866 -0.010317502120440473 -0.13290301126166304 0.043975869683390276 -0.094963417119420232 -0.089371528975665387 -0.062077463962209679 -0.013437857028352988 0.087503655437691702 0.061418999163975446 0.024032759744778885 -0.04419042924054007 -0.075915028570061938 0.08053247881494098 0.05558249705319291 0.013965014591986933 0.016377242601920434 -0.039979918919783336 0.075061933342083581 0.024750690487691334 -0.0007692000303512385 -0.032555515367322936 -0.027087541394775955 -0.11125033577293753 0.035049549230881334 0.031668347760231662 0.097584900967113308 -0.108501884097418 0.026249071574813061 0.065649760049676653 -0.020502732693664257 0.067058138625934058 -0.051796445002423142 0.034156917185630443 0.045956246359944379 -0.050778613035809175 -0.041325938613513302 0.029388230578745445 0.019797338014765055 -0.08031888357040759 -0.015140029515074668 0.098571232054924754 -0.015810066064705742 -0.075148239321251711 0.012533974669244052 0.017610759157069986 0.034141488183767991 -0.023212290426988857 -0.01341953508864132 0.025688323788374393 0.035571724512663862 0.021927826021939316 -0.05629046323240252 0.018336082963374863 0.045870583255853872 -0.0050525159536464444 0.028271878006488928 -0.042107674707877782 0.079761671596895733 -0.12338154920606369 -0.087384562829565873 0.099693370502879686 0.059698986893850302 0.0049032082168732937 0.036122668454169102 0.045790223871153578 0.10385357584881404 -0.068984513795969565 -0.098939920911929699 0.032963580322831039 -0.014519012190110777 -0.054204976480660423 -0.036623307420851944 0.059294939907577206 -0.043157489709602453 0.0179124282872349 0.11048756449336232 -0.00080359384700296539 -0.011863295244535377 -0.08372242495000394 0.052233600055192751 -0.03970300048010611 -0.017962411824518486 -0.10911888345314685 -0.025115361375461279 0.05911075619784413 0.032851559340558827 0.069340827307730682 0.074207873801488841 0.0012654995902602699 0.043414639740643406 -0.0022254727998900123 -0.061068953684220953 0.09974688985309009 0.032907489472310231 0.0089210167331187206 -0.046714999670284585 -0.015179084176039014 -0.083298770273863981 0.086915264022916133 -0.0063194620128313199 0.003971682229427456 -0.017218283922193739 0.010038333617991642 0.032770074924472724 -0.075860544907235136 -0.10742121109196839 -0.017576043902879458 -0.010425826571016473 -0.05734863561013602 -0.14180442030491489 -0.004128865185901236 0.088976642959248148 -0.052147454794794025 -0.050270259568195107 0.042735281502387097 0.081771620527019542 -0.0053672033041328058 0.024715171639653803 0.031405251134722888 0.025499800671867499 0.04146367459888961 -0.12727447923848484 0.0098202382479150377 -0.0092712229316426129 -0.16828862343936099 0.040238354700979487 -0.084305512645389311 0.074852677504324019 0.029100543981518387 -0.059694808205845877 0.0044204090335939117 -0.034738236974552389 -0.043545464818935495 -0.085180144188467324 0.090989806264759956 0.10589727572051197 -0.1122990257432764 0.025900151126444372 0.052065166784860929 0.0009157755480445793 0.040528291360978151 -0.0050153899179149076 0.036136329549568143 0.078550816388231665 -0.015467413648343678 0.052820705719813114 -0.0689933533282866 -0.025087074872046776 0.064535014665114146 0.0038371606194391597 -0.04435211232255707 -0.040948249505421905 -0.0063612488928754731 -0.032643910690493258 -0.072685384898957012 0.049236195005871689 0.078018997980285096 0.048732823820109031 0.0031772493522803243 0.055745787322903917
housekeeper 0.067141234337354 -0.10980007947107538 0.036230802264867343 0.034772335949335924 -0.0073538039867872872 0.044882876805349532 0.070766770119314149 0.055178336022523755 -0.10946966527200069 0.011687441785874641 0.1609077058792153 0.04891416389648684 0.019534361402423556 -0.081016459118820786 -0.037782646506224225 0.002633792050965976 0.011022771362154618 -0.083558543689861584 -0.024893151850510602 -0.039394793844581083 0.013905626896851821 -0.1225282090528223 -0.036544010871169187 -0.020006596458431725 -0.062269545913787576 0.15444391546809536 -0.019827691702512109 -0.09574528175532887 0.054286484956366128 0.016363019860748597 0.072486828262828873 0.045199259258861903 0.0012491594442267755 -0.032673086586458427 0.010169507596293375 -0.012605685897256641 -0.091770455735620912 -0.026786435233884003 -0.019893340226392976 -0.043058248748477509 0.022668619045112373 0.016701619244734647 0.04864438688359219 -0.020472149730838787 0.035159044175249933 -0.072210369466333107 -0.0099439973997560455 0.0089290344707480384 -0.14628228384393435 0.04224023139111209 -0.0070026762585491649 -0.14250607384176928 -0.018739396198481965 -0.10160320143841854 -0.014175737998926534 0.051411814606580286 -0.020433562430542403 0.023667879782657785 -0.060153425047317292 -0.021380538211409155 0.063667040953958906 0.065640171651365528 0.0069502242572804821 -0.044708983387130759 -0.038627558042584081 0.098162082883848936 -0.010829834860672681 -0.0054900874958487833 -0.074653229550897482 0.015847353211333237 -0.011372896822852575 0.016428000206269354 -0.0028972213694395815 0.040298672121220701 0.010127913493376491 -0.0020005260101711502 -0.037008227786856029 -0.044136020443335908 0.0013752781096976522 0.017146458987978282 -0.010286104720132676 -0.12171704052364803 0.025170111780776452 -0.072670410267269253 -0.004420333941311705 -0.034659580851067261 0.077596555227184685 0.058593228576459037 -0.036905328319398994 0.018758940415515197 0.035778612559662491 0.024124078558023298 0.002250257672262489 0.0096667033803101449 0.028158873585551185 -0.026864612102016943 0.017506774168667923 -0.052669827414078517 -0.060722713010131532 -0.0029343052684257199 0.0055774518164332454 -0.11858228174718911 0.065077064338382312 0.023979417943059356 -0.0074334842562304767 0.037011735723246612 0.023745889606200696 0.040862113523383974 0.002567308304134971 0.08047406533500101 0.059838211905935121 0.14566071092444144 0.032854664055818487 -0.029634712538445483 0.010863076734088184 -0.030224546985833118 0.031044568878278861 -0.032406316376184269 0.082721817338413078 -0.060010601922843652 0.093418684705423749 0.01114905707221552 -0.011813894540525572 0.046178140556423948 0.00027695993026584565 -0.022367604693882544 -0.023255446689879514 -0.057077465966548127 -0.066573783865030059 0.074947395073936163 -0.02912288791460076 0.064578770326329832 0.056296699552758886 0.044969071813803801 0.033606364710942915 -0.083459486247975195 -0.056205493206603785 0.01196423467155046 -0.061086034993441667 -0.053342850067299927 0.044775801223141808 0.02083981487348965 0.013746266357965442 0.067555170831442524 -0.0027714367931487606 0.075059816083024783 -0.04745720098226567 -0.091070538903405052 0.055514596782249424 -0.12193737233789449 0.012001819704306681 -0.06085467823625338 -0.0027412017223537558 -0.060851003255272769 0.0078983693502774292 -0.049334448084996416 0.038337401589706055 0.048679800336678049 0.076110693598888723 -0.17162344928489912 -0.060372420504843545 -0.064438619915296633 -0.02905540190022959 0.041121533771696916 -0.0034252493185169871 -0.098082736703585804 -0.071720761772962049 0.0087755204925126264 0.052587140342014838 -0.021850768732336996 0.042450039396186828 -0.028145844107529027 0.056357503783528953 0.020988985692384343 0.044258130038646121 -0.0075328757872969295 -0.003349745163824489 -0.020221582845797312 -0.08274169564462637 0.12053486596002234 -0.075014379954537261 0.0024999893343538274 0.11907907235793136 0.043226295606045316 0.074018293064202378 0.04822627427475297 0.0063091071207543566 -0.041486693245497357 0.064770704560271605 -0.012988886186780072 0.023275157951502774 0.018304245041459929 0.050542681604666413 -0.038935254177415016 -0.088575894995932103 -0.035089219536618373 -0.051299226552901644 -0.028491292319706207 -0.012376500719738703 -0.047216823817215883 0.098872857614416582 -0.042242068881602403 0.085562076502653225 0.10763852247611758 0.037501009327437607 0.023850125430377948 0.0037668555051235341 0.010973159118916404 0.053632171297227818 -0.013062385806392239 -0.12401807975127892 0.018002562511869994 -0.039276693319431538 0.014850431098048216 0.015255681273455298 -0.081252493124529868 -0.0425429161882422 0.055116863613393588 0.020259167878553534 -0.043052068098646479 -0.13522426607328389 0.0041619159605389292 0.027923507758202223 0.017097681967690209 0.040659989569450515 0.096539912870090422 -0.087922082470563892 0.063919946463260768 0.0025676423933150261 0.025572689242743089 -0.075578489535060633 -0.096467582562608442 -0.029653254487938555 -0.0609031211673614 0.021796145151397953 -0.07484082062549853 -0.040134300244633499 -0.087358641068400633 0.041683972906320019 0.061012034240059423 -0.08380794126277287 0.050525308967303541 0.030776629355874503 0.017055085597233156 0.070417145792386268 0.061124288204558008 0.0012909205917336882 -0.021022227565799842 0.079425860532577497 -0.0091565492023656988 -0.095730581831406453 0.08901271659885443 0.030518545464281784 0.017886299477210748 0.036387824179493336 -0.022611155706142864 -0.030835262006974212 0.0072876543291363373 -0.011270164399985568 -0.016234562571017332 0.056032769100515196 -0.13728893720602567 -0.032285376093004255 -0.042575489883297596 0.047154850274315624 -0.014436995737729779 -0.00055024487955108298 0.0081546157513798477 -0.052274432869483078 -0.10725114607184347 0.061742019098480261 -0.14051222961519921 -0.072612111705349605 0.0020823778592846992 -0.092655959107357494 0.049636297659176383 -0.0463518669300527 -0.0091101108063380114 -0.067445255491204323 -0.061466228480344602 -0.025156748213574241 -0.040215985049157014 -0.087200449841644434 -0.030489813794797028 -0.081523272404964681 -0.076041871227797334 -0.032952886274754747 -0.034945561189194597 -0.015233464342981619 -0.03498164282064057 -0.050805943878549996 -0.016085558796712671 -0.020985978889763841 -0.0033489099408743504 0.067665253216270746 0.06921860085893787 -0.071859575827275035 0.095162296136132377 -0.12177082888163691 0.0047844911475719851
accountant -0.0091888105711636914 -0.13198841770737069 0.092567960395031595 0.050443302424270239 -0.10288307951738261 0.048370053421211756 -0.019442544424063318 0.087227954921586956 -0.036570915486692127 -0.017520108255701546 -0.0072839863324773834 -0.044978987505446329 0.089726113101767119 -0.079756392988585431 -0.024820509590594897 0.04415652748856292 0.040801198400973925 0.03440088636522283 0.0061621235111110574 0.027115874095094448 0.063508276430512919 -0.041895531895371804 -0.011095857674760496 0.11824324703851634 -0.066703730234154726 0.10329328358817332 -0.0098507113456659089 -0.00057349914690788862 0.0061746057525315333 -0.11244430545585858 0.030130249903335106 0.068417388090538406 0.011183233364703827 0.044916747287952453 0.088241752310381477 -0.010422158617271802 -0.10593815085244618 0.073828696230727422 -0.040790768034855443 0.00034608296760332933 -0.020827047284085135 -0.015488409727508482 0.036989327058690812 0.043271143295751636 -0.018321023581913995 -0.040088000743921805 -0.010543390249698067 0.044352652569512041 -0.001139303761433292 -0.0053148700009951998 -0.085816264713813678 -0.066980562410315692 -0.0092525896951340687 -0.012000563693332241 0.0011721337662652283 0.0122291767998963 -0.033468138050857132 -0.042768433846762613 -0.036552961577799657 -0.063054811988771789 0.036696763838547877 -0.019449213018794806 0.082412545567019282 -0.03118559776699506 -0.13516831145663905 -0.013920093038349521 0.15485759388576739 -0.065377363841022801 -0.021152269519451504 0.021209722027907395 0.00069763760267864796 0.055989179386348495 -0.0027859336912851003 -0.035922351901652882 -0.07459729452093343 0.05182814726350906 0.03469037177241277 0.0097578639882505893 -0.06329761723284133 -0.0097867612320870333 0.045768275538280799 0.044543476972597675 -0.058944905758873761 -0.032851207543390333 -0.053459901097421388 0.0066735534301335664 0.024713983064499602 0.064523783715392455 0.03445047335168773 -0.030186163505314497 0.090039366064538495 0.051845588203576022 -0.021465351492614401 -0.023432073969577586 0.07390769342985426 -0.070552193352656764 0.027438702475941823 -0.13785746502951332 0.015435573938482086 0.0020291336840655675 -0.010627859116296903 -0.13467346752964099 0.050578213225376471 -0.033532088164436015 0.026678824655769297 -0.01144005975667033 0.041794648026357004 0.079124757374787649 -0.1587641934711593 0.075036224845952071 0.045340630527423133 -0.081707897390392151 0.02629922772490003 -0.053316269826281668 0.0038742825493854917 -0.023632986759564698 0.052975145557324833 -0.013913082464401035 -0.037082345405714631 0.02464917800287823 0.093690849154048919 -0.033305526933173957 -0.059566452985770055 -0.073155339152455728 -0.067772928256103163 -0.023925208000490632 0.037390126701014034 0.10602706544886602 -0.024880355953569782 -0.011173828936236346 0.081322828792050897 0.00257476152478801 0.011214011494233768 -0.037913183913414528 0.1630456022783825 0.025422734991730731 0.036349141964468056 -0.0031354364510584234 -0.0439607443868308 0.045392953347624027 0.030530023608007335 0.023010926563842904 0.027971506096026791 0.18451300564629891 -0.14263063995078157 0.12735032457681719 -0.010382318038491378 0.079213329991990489 0.11855137031303274 -0.019590792414632532 -0.070820476048392741 0.010574168379228007 -0.041686753583393715 -0.080474891323501038 -0.043618936159439965 -0.037461771346975398 -0.041308866548609442 -0.065260064969592024 0.098904493306812322 -0.091797481219132088 0.030825835630711756 0.0067557994318219079 -0.080710856983230578 -0.016817169975159408 0.016789127679365461 -0.0056963478175579606 0.064534556060727929 0.031669327369440621 -0.033310998600645937 0.023537574558021884 0.18363138322487463 -0.061340641163562616 0.011340030835698024 -0.056299183546558391 -0.038197710621957974 -0.051889019564134935 0.063435092878075056 -0.038640060739146616 -0.00096215852702763536 0.048613200644498283 -0.022677496827268551 -0.030543702776687307 0.043469833220828251 0.077485992966926834 0.036543899128549176 0.0031299647835864339 -0.03816864238851303 -0.048505477191143495 0.0019048242386863084 -0.16381026780759303 0.024061315728856371 -0.036108730574917522 0.034670536977826807 -0.05428766179216829 -0.030661514616943577 -0.036863307717226561 -0.10023564740898223 0.041407527552713749 -0.03530884118635607 -0.0044669325324453429 0.12493099260615538 -0.050905316346436337 -0.044203207651683334 0.030259005078535357 0.066891818803504366 0.061602255264567113 -0.008937797825886178 -0.042913946003595826 0.064228484661513527 -0.034523485914517094 0.012555595962522165 0.031117885882029194 -0.06105645643423617 0.056115027738204253 0.033721715640262148 0.0089839650201810877 0.08325723423300764 -0.045561891080821697 -0.04555915524708571 0.05416950797269502 -0.032508715357565499 -0.049645464911010781 -0.055937198545364587 0.026706353982737741 0.12623188154762086 -0.010018965120429582 -0.070823895840562742 -0.0086908888312126568 -0.0084653535376015936 0.01859580388277296 -0.020408977691303447 -0.081844347097974876 -0.029641219623026054 -0.0083966157149847273 0.075106330585436934 0.0097079350225686856 -0.027808211019909608 -0.081686352699721188 0.027204788691514274 0.077384938108303519 0.0098197622265274696 -0.050328226417749963 -0.0085265678174444755 0.0033433598149940208 -0.077214290479020856 0.046093839752864171 -0.13023149948003662 -0.015739935441611494 -0.072727010183164048 0.0094452949839131956 -0.033122739041687804 0.00071524953235411386 -0.016460656641437598 0.017681522446125232 0.013192703243791933 0.011818801739497094 0.016405597987500707 0.016192031966484621 0.0014135710934667606 -0.064392976664890203 0.0077952452618913924 0.028107784814001027 -0.014425880300291542 0.0064935013723834163 -0.025900650947487305 0.0058334814835746948 0.032699539760651125 0.045733222668538361 0.00135184384479838 -0.025948357048258711 0.0043097930822341476 -0.07311960232427929 -0.0012694268535015398 0.046709915312288471 -0.053646792739511527 0.13235758427212149 -0.12512574977023649 0.071978417677152504 0.05624549280948949 -0.016578639471302371 0.0014532406826386836 -0.028090001894717061 0.008060963113499877 -0.07886348525300016 -0.052442341937239866 -0.054459506348710454 0.055423545761431582 0.0051163510655270845 0.077044155818563678 0.037989445278805378 -0.023488158561165477 -0.10075682373568924 0.014059791548493751 0.047154830273604613 -0.024302753056057901 -0.0032710312105986607 -0.050887191447935375 0.0012237726280321284 -0.057214319931248613 0.012700937129746884
physicist 0.026596083850505003 0.035913684620042963 -0.19127881389275625 0.010559689283944207 -0.075689922919135455 -0.027571935076311553 -0.061099344739275779 -0.022552340905602906 0.019833445420637381 0.051344001972741228 -0.0073021563215802283 0.01371386160582669 0.037356507598075961 -0.0452946752201999 0.041983965233261117 0.080775548163405528 -0.11890998984946657 0.0062676695024511267 0.04579351797059867 0.059165426656808559 0.052211562237907023 -0.029036416246472695 0.018611078186868149 0.0056357081077525149 -0.083524201652189406 0.042225550921064545 0.11436071300537816 -0.15446305676643271 0.085894981317339067 -0.05574079105761845 -0.050983208186801562 0.011740677044948272 -0.13804174506172448 -0.054955109323668823 -0.025604913415632195 0.074677798623585825 0.014137516973796839 -0.075279649848740429 0.081356973776471803 -0.002276047084946854 0.024238862565793294 -0.037644226995940978 0.095954067022256201 -0.070098939858541889 0.0317361186993897 0.019799989676699589 -0.033237753353608082 0.043785997251468305 -0.048061641326718148 0.013984677048859979 -0.035357967104949956 -0.00058072128161494076 0.074640997305254253 -0.079536100891941755 -0.034835705333794736 -0.17373303702601253 0.052109962426053834 -0.047146010439999629 -0.033517725105508551 0.028718938844789332 0.055718076368313316 -0.044149432280350426 -0.014392484959175384 -0.025968700610239981 -0.10719995122265082 0.024049573488250525 0.14297611512682318 -0.067085809909786617 -0.039983839994369635 -0.023275865388973371 -0.022773677064180826 0.039333213816210987 -0.083296702593412417 -0.054638336253436774 0.020998585723986701 0.0085366732728847615 -0.014558707181687362 0.013846628084400877 0.078445267556706888 -0.017898646923856006 -0.039431644136533231 -0.011688556517550448 0.0082908615963734038 -0.056576128158886269 0.078916993546229761 0.015237858783624544 0.053858113088234891 0.042594796684420073 -0.07732837395777313 -0.10970930810084806 0.010497003784776554 0.024051510399741655 0.0079055922925003012 -0.13085615559533803 0.10464798229164859 -0.011665489662519657 0.0090902777936238063 0.084336824064152105 0.044716771264390248 0.17265312082827317 0.01572631264511631 -0.073035473761965897 0.037496669556889031 -0.00098060546310297313 -0.027213782533314343 -0.02279040493614972 -0.074611591467161564 0.032944927552720979 -0.0012336365369903805 0.040028388958665749 -0.013199171397773183 -0.076245992599954127 0.15039888820944228 -0.073697193160482857 -0.037420425677283431 0.0048878841893114427 -0.0098669793015690784 0.0071815395605413458 0.055337913467462294 -0.061249719504133007 -0.022443169530648 -0.061103746810846543 0.077341051923896911 -0.031544716627492961 -0.030846195910644428 -0.044890565050003939 0.046564056578344871 0.029869992519112216 0.001380665727453836 0.038470936036930102 -0.021033978379415629 -0.064458125347767278 0.04035167709482252 -0.024039536765069185 0.057512536823418794 -0.071916643251540985 0.083095968129785674 -0.02096196048851796 -0.005425289086670085 0.016901489671646969 0.040044412499183321 -0.016416205301686148 0.026099530177323031 0.076974095237758194 0.026711594208521799 -0.015992549933716002 0.052127218546611231 0.028567683665617946 0.11694648984604383 -0.045368630022588709 -0.0079946902210925267 0.053130186533293669 -0.047785191232074288 -0.015212326768514122 -0.034568763713743719 0.046217701587157309 0.011603684577666156 0.014785501909013026 0.030447720392059036 0.022520822073156251 0.061103922893709368 0.15863040988104182 -0.072553887132124517 0.01994208854700379 0.062795727039784671 0.09451370920430284 0.018172631858420243 -0.0058109105562688477 0.067623743055733751 -0.012949661981142386 0.054699437006838957 -0.067370007650395025 0.0064941120640511305 0.070296504830637693 0.021699043352326371 0.038655294794313622 0.14393858405505458 0.020265904931749051 -0.019558756154621822 -0.015474866316994377 -0.044354216649822281 -0.067878711041112288 0.15022544658955425 -0.014943976485560463 -0.0072966977528324825 0.10283327230731761 0.03756921569637519 0.083744481313590344 0.055744312714875052 0.0042073239244716171 0.018957609260918544 -0.022208098908769309 0.13251221492025875 -0.014647805110279586 0.018883126209941252 0.008128689279706525 0.02914365070993646 0.025204677068418505 -0.026953884227776545 -0.022054554652381122 0.032332335272933721 0.017067183645570454 0.045629408742440654 0.0040486732650613496 0.01790657065268338 0.015651301345550525 0.0044448597064299421 0.027708575377868007 0.063599545308605843 -0.054202002919342837 0.026285649763334855 -0.018152734494920397 -0.018418971783520092 -0.0031134971805686423 0.14531114997081823 -0.04535454339356227 0.029810652594338342 -0.037466735470207846 0.011740853127811103 0.014080642209102592 0.040565969938887218 -0.02380904429762408 -0.046109938875105054 0.020790807945846729 0.083107061350143993 -0.042278551862776521 0.091915958728964686 0.010194845592159442 0.0037681732645723867 0.09092760561989717 -0.0030948323971086112 -0.043405482184891625 -0.018035463308275296 -0.025520393641473568 0.0170766921201633 -0.08449300956348274 -0.05731004153116373 -0.067164342866609023 -0.028138217563174393 0.076264833466276993 -0.11910368099858011 -0.12704906801808011 -0.017427625265784459 -0.063225193142228228 0.021289650696245496 -0.031291861636468389 0.03046779383842171 0.039606846585049565 0.019848940712566463 0.05937038710914324 -0.079011197877844067 0.061515252461281388 -0.042690409678937023 0.014169387971969158 0.027284215678446539 -0.028211291951249044 -0.0881697958222461 0.01715997931428212 -0.035932173320640165 0.02498756689854852 0.085198397511981674 -0.058029516108689103 0.011712679869758224 0.06523958109300898 -0.065433800490711 -0.01313296424134892 -0.057261618743885349 -0.025755992511940759 -0.056176420060261065 -0.061721093327930215 0.016585420932866246 -0.02525045861275443 -0.010358778737454624 0.022500572543930744 0.06907589842549676 0.0941837299193585 -0.042354795742382122 -0.030841969921936496 0.073857428565658592 -0.051101711953486485 -0.01876004428882274 0.012487972714800852 0.082864771330889236 -0.017846350313595351 -0.0059334642287988647 -0.010920835235609532 0.077002972827262386 0.019723393631368328 0.042233298567029086 -0.020557145986870674 0.053614942654666001 -0.039413507601661693 -0.06114530236647453 0.097721938965074293 -0.00034811581981586957 -0.053501545291003164 0.044833690285309688 0.11279216686328419 -0.032593113992785673 -0.0077120772262495975
gardener -0.041308273082036884 -0.034366889704070529 0.053790874099937123 0.1340387532088155 -0.04349787256603254 -0.057567206147934313 -0.07873321255412373 0.048972328547653966 0.016184855061468537 0.023851471248226369 -0.004979505166844693 0.010505541388586974 -0.031162695922378445 -0.056897577569627725 -0.0067154911916214692 -0.015707463477371245 0.0017910415293029397 -0.035640299745635796 -0.12206244334217248 0.014306383196074215 0.0026613208998527136 0.035433978785152365 -0.02721790500505037 0.067326480232645064 -0.030348935325578117 -0.061156422644003713 0.021395190948286711 -0.049613423376106462 0.068353329410086511 0.050087705513104264 0.0054890886738542905 -0.0042796966608078203 -0.037195754929989576 -0.08147044054493445 -0.030372530541803618 -0.012823908564231865 -0.018112346445842961 0.0074125560678646781 -0.01907243396497196 -0.083493044428822508 -0.047545458146296508 -0.034412799775951151 0.055137630511319639 -0.0033239989493486851 -0.092926558202699058 0.015222023912545879 0.049907540489987093 0.048213440546726896 -0.10716215575009679 -0.069530529500220664 0.025519963980079049 0.017343398469005795 -0.037003883753086102 7.7919086140017588e-05 -0.075533225671448601 -0.041428444066999311 -0.020387912996706715 0.049110241671948746 -0.014497339829713131 -0.084137797430333214 0.078023526980829677 -0.10293330769479817 0.035697550153996886 0.043543965546566074 0.05045370572757886 0.027312651687258188 0.014698539347915056 0.015654419968027102 0.045875502145220549 -0.035115169003128777 -0.001057029105171741 0.07146936122107557 -0.0092846261304071198 -0.034546140183923157 0.079813288149562248 -0.040367025154157708 -0.063259689243825454 -0.11853212343234037 0.010735457565295899 -0.08561697970642318 0.018702958486092061 0.059177533928161344 0.00091692107704203802 0.0027492999619028271 -0.095365645089265094 -0.036682147432615934 -0.0062860216745868188 -0.013795519328494243 -0.0032259599113884747 -0.047957002615345898 -0.0801567905997288 0.012155194529189834 -0.10193773589700447 0.011940459770672509 0.0051247346372558988 -0.043805524920228579 0.043663953622875583 -0.1219867191598674 0.031649598756427096 0.002809111091404672 -0.025369064341427605 -0.070289966227106482 -0.085070997377484317 -0.017104885585610061 0.16116227734896391 -0.013620109930352746 0.13471679558515601 -0.002953791835857146 0.071255358097169902 0.067827284124314935 -0.036768114499484028 0.025545937008792388 0.06501250286467003 0.04054737308592779 -0.044339069460769494 -0.040431957725941055 -0.017924682167956441 0.12557739892516009 -0.056853679492929132 -0.06741537383795973 -0.081301067132339019 0.083709059547910206 -0.016085901480243772 -0.10086607409959986 0.012182630827126459 0.030530014891959851 0.0054589087461240022 -0.072462006480422697 -0.018528829448520943 0.09008616973164664 0.032702786779887714 0.0025115187131187363 0.11762489651390261 -0.067654984173272925 0.078757356496307968 -0.019964662373871032 0.037812888724910745 0.09364886447304395 -0.026375976475701775 -0.054142790348137577 -0.031323289719634162 -0.017860664139437647 -0.0072751916695286377 -0.096735996716873107 -0.042930307016050211 0.12424070248968767 0.061110146754817275 0.023900856584512301 0.12991196818184117 0.017033734119627744 -0.084880406561151228 0.012331152653290062 -0.0481914915083776 0.13286740619557449 0.034561870328073487 0.035275945709037401 0.035331732848175208 0.14204484785537588 -0.0040137474794754609 -0.10308292697287923 0.0045439996642639841 -0.12773206285644978 0.013131378009774982 0.0005629928336595637 0.13389882808933873 -0.032044315629408689 -0.13763254242120768 0.063269566311082645 0.0096160566094815603 0.032458603728251739 -0.030658599674956169 -0.00075522982786885599 -0.072343481673336471 -0.088319455053180826 0.023404991226471012 0.037562852596381625 0.034001621124207584 0.039875549603786281 -0.063002519677832811 -0.022100120896605083 -0.036516615101731625 -0.074566736349467727 0.12674783139513657 -0.040933310343569659 -0.0083435611111808503 -0.054801993133228241 -0.0045445483902227159 0.010320620740494115 0.0085357981053901435 0.01424401134543162 0.020286215785688289 -0.071711898094835344 -0.034282568815078636 0.0077754468352397837 0.017298220031736818 -0.06190305576518576 -0.014868827303775048 -0.057274735211929877 0.0069593084259516177 -0.022020738541241779 0.081966122994322835 0.034975243883651981 -0.016190342321055862 -0.0082127814243496012 -0.0088827758199620053 0.091880869434007792 0.0088675944017704064 -0.076627019415855424 0.033910349706405073 -0.0052015562714784521 -0.016490495420482549 0.0013469393200354215 -0.053418837899916471 -0.065850407403654582 0.076847607251265895 0.072074057227598812 -0.047180006657780646 0.027299848081554428 -0.0039261342347311681 0.017312303998010949 0.051331484352897978 -0.069981582238298812 -0.060679579785865155 -0.023194280458317725 0.046257415412498379 -0.0051121139402050516 -0.012334810826348278 -0.015671064655441991 0.011354969172704912 0.053935189027083774 0.04243169802821526 -0.10929980917666576 -0.012974076568271662 -0.069456085678485963 -0.10664836534407023 -0.074187383803330648 -0.022252483804479813 -0.0033353392858291569 0.1090239829280762 0.10823418336480721 -0.070621579614833827 0.013381779955609923 0.0085460409899531502 0.0012816409309462519 -0.16059434598167574 0.051771196754495638 -0.059582676594358855 -0.030825778183716675 -0.00090777564439649611 0.010069304251394622 0.023026187406292663 0.0073763401545883329 -0.07347696659542495 0.082613070899668462 0.051873076874166972 0.028875971943687132 -0.039958407223554891 -0.04619979918683146 0.05188862410966439 0.051732785937384354 0.0071370956365809542 -0.042961035669739231 -0.092430875753310673 -0.044754637920182923 -0.058808424266587271 0.005497136654582368 0.025078056674646462 0.047541982881891202 0.069983777142133732 -0.0069015092916317935 0.10864133802618672 -0.042164102669006706 -0.094468843964043245 -0.034046799561476562 -0.092137124456735872 0.093773608174329157 -0.067626633332071737 -0.060466491205224029 -0.00094691809611941575 0.0086658461576097513 -0.0072089787371749136 -0.014688479372004961 0.021511703760190914 0.028156775120441707 0.012484064287123522 -0.023910916560422397 0.011526171671829457 0.017095191427005784 0.022422954668992717 -0.03691407560450688 -0.053220382011508208 0.052312423458458809 0.057117616679079469 -0.077111544437416232 0.13222448228059289 0.02719997995706511 -0.013276973297492011 0.040510974263998537 -0.075942941053968885 -0.050185378733758654
